{"learner":{"attributes":{},"feature_names":[],"feature_types":[],"gradient_booster":{"model":{"gbtree_model_param":{"num_parallel_tree":"1","num_trees":"200"},"iteration_indptr":[0,1,2,3,4,5,6,7,8,9,10,11,12,13,14,15,16,17,18,19,20,21,22,23,24,25,26,27,28,29,30,31,32,33,34,35,36,37,38,39,40,41,42,43,44,45,46,47,48,49,50,51,52,53,54,55,56,57,58,59,60,61,62,63,64,65,66,67,68,69,70,71,72,73,74,75,76,77,78,79,80,81,82,83,84,85,86,87,88,89,90,91,92,93,94,95,96,97,98,99,100,101,102,103,104,105,106,107,108,109,110,111,112,113,114,115,116,117,118,119,120,121,122,123,124,125,126,127,128,129,130,131,132,133,134,135,136,137,138,139,140,141,142,143,144,145,146,147,148,149,150,151,152,153,154,155,156,157,158,159,160,161,162,163,164,165,166,167,168,169,170,171,172,173,174,175,176,177,178,179,180,181,182,183,184,185,186,187,188,189,190,191,192,193,194,195,196,197,198,199,200],"tree_info":[0,0,0,0,0,0,0,0,0,0,0,0,0,0,0,0,0,0,0,0,0,0,0,0,0,0,0,0,0,0,0,0,0,0,0,0,0,0,0,0,0,0,0,0,0,0,0,0,0,0,0,0,0,0,0,0,0,0,0,0,0,0,0,0,0,0,0,0,0,0,0,0,0,0,0,0,0,0,0,0,0,0,0,0,0,0,0,0,0,0,0,0,0,0,0,0,0,0,0,0,0,0,0,0,0,0,0,0,0,0,0,0,0,0,0,0,0,0,0,0,0,0,0,0,0,0,0,0,0,0,0,0,0,0,0,0,0,0,0,0,0,0,0,0,0,0,0,0,0,0,0,0,0,0,0,0,0,0,0,0,0,0,0,0,0,0,0,0,0,0,0,0,0,0,0,0,0,0,0,0,0,0,0,0,0,0,0,0,0,0,0,0,0,0,0,0,0,0,0,0],"trees":[{"base_weights":[-2.689037E-1,1.1951615E0,-1.004677E-1,2.466947E0,-6.338451E-1,-9.899434E-2,3.6159704E0,-7.8742313E-1,1.9748827E0,-8.5237816E-2,3.7569818E0,1.8938604E-1,-8.567177E-1,2.8616855E-1,-2.5375018E-1,3.0407152E0,4.4742594E0,-2.8293392E-1,-1.0299687E0,2.1127326E-2,-4.6243134E-1,3.5638824E-1,1.6439131E-1,3.647916E-1,1.1925522E-1,-4.3776054E-2,1.12568155E-1,-9.577445E-3,-8.550195E-2,-6.235575E-2,5.0407955E-3],"categories":[],"categories_nodes":[],"categories_segments":[],"categories_sizes":[],"default_left":[0,0,0,0,0,0,0,0,0,0,0,0,0,0,0,0,0,0,0,0,0,0,0,0,0,0,0,0,0,0,0],"id":0,"left_children":[1,3,-1,5,7,-1,9,11,13,-1,15,-1,17,-1,19,21,23,25,27,-1,29,-1,-1,-1,-1,-1,-1,-1,-1,-1,-1],"loss_changes":[1.5668115E3,1.017425E3,0E0,1.1018021E3,7.363746E1,0E0,1.3406714E2,3.932872E1,3.7643845E1,0E0,8.477319E1,0E0,1.6378967E1,0E0,6.880157E-1,1.2876532E2,1.7105713E1,1.8755545E1,4.408386E0,0E0,7.3139733E-1,0E0,0E0,0E0,0E0,0E0,0E0,0E0,0E0,0E0,0E0],"parents":[2147483647,0,0,1,1,3,3,4,4,6,6,7,7,8,8,10,10,12,12,14,14,15,15,16,16,17,17,18,18,20,20],"right_children":[2,4,-1,6,8,-1,10,12,14,-1,16,-1,18,-1,20,22,24,26,28,-1,30,-1,-1,-1,-1,-1,-1,-1,-1,-1,-1],"split_conditions":[-8.451438E-1,8.174694E-1,-1.004677E-1,-8.779991E-1,8.854896E-2,-9.899434E-2,-1.4402336E-1,-3.4617864E-2,1.595662E0,-8.5237816E-2,-3.4602012E-2,1.8938604E-1,1.2729427E0,2.8616855E-1,-3.4583125E-2,-3.4617815E-2,2.7872193E-1,-1.0851536E-1,-1.5876488E-1,2.1127326E-2,1.9206033E0,3.5638824E-1,1.6439131E-1,3.647916E-1,1.1925522E-1,-4.3776054E-2,1.12568155E-1,-9.577445E-3,-8.550195E-2,-6.235575E-2,5.0407955E-3],"split_indices":[8,5,0,8,7,0,5,0,5,0,0,0,5,0,0,0,1,7,7,0,5,0,0,0,0,0,0,0,0,0,0],"split_type":[0,0,0,0,0,0,0,0,0,0,0,0,0,0,0,0,0,0,0,0,0,0,0,0,0,0,0,0,0,0,0],"sum_hessian":[1.0822988E3,4.3572223E2,6.465766E2,2.5680563E2,1.7891661E2,6.0779503E1,1.9602612E2,1.6962859E2,9.28802E0,5.5402226E0,1.904859E2,2.9330592E0,1.6669553E2,5.0513797E0,4.236641E0,9.793159E1,9.255431E1,3.92704E1,1.27425125E2,1.1406341E0,3.0960069E0,3.878156E1,5.9150024E1,8.9458305E1,3.0960069E0,3.4544918E1,4.7254844E0,5.377275E0,1.2204785E2,1.6294773E0,1.4665296E0],"tree_param":{"num_deleted":"0","num_feature":"9","num_nodes":"31","size_leaf_vector":"1"}},{"base_weights":[-2.5720677E-1,1.0329611E0,-9.848993E-2,2.022731E0,-6.0217094E-1,-9.6984975E-2,2.8343089E0,-7.537835E-1,1.6965379E0,-8.3139114E-2,2.9297767E0,1.6383572E-1,-8.23258E-1,2.329062E-1,-2.4266009E-1,2.4100256E0,3.365843E0,-2.6329E-1,-9.9833244E-1,2.2416798E-2,-4.5561644E-1,2.662005E-1,1.1949966E-1,2.747557E-1,8.287819E-2,-4.1456018E-2,9.9436894E-2,-8.975988E-3,-8.3032094E-2,-6.2315617E-2,6.255961E-3],"categories":[],"categories_nodes":[],"categories_segments":[],"categories_sizes":[],"default_left":[0,0,0,0,0,0,0,0,0,0,0,0,0,0,0,0,0,0,0,0,0,0,0,0,0,0,0,0,0,0,0],"id":1,"left_children":[1,3,-1,5,7,-1,9,11,13,-1,15,-1,17,-1,19,21,23,25,27,-1,29,-1,-1,-1,-1,-1,-1,-1,-1,-1,-1],"loss_changes":[1.3439606E3,7.460134E2,0E0,7.5669995E2,6.20244E1,0E0,8.7974365E1,3.3648636E1,2.6836828E1,0E0,4.274768E1,0E0,1.5515747E1,0E0,7.0616597E-1,8.405505E1,1.5542847E1,1.5884565E1,4.1701508E0,0E0,7.638339E-1,0E0,0E0,0E0,0E0,0E0,0E0,0E0,0E0,0E0,0E0],"parents":[2147483647,0,0,1,1,3,3,4,4,6,6,7,7,8,8,10,10,12,12,14,14,15,15,16,16,17,17,18,18,20,20],"right_children":[2,4,-1,6,8,-1,10,12,14,-1,16,-1,18,-1,20,22,24,26,28,-1,30,-1,-1,-1,-1,-1,-1,-1,-1,-1,-1],"split_conditions":[-8.451438E-1,8.174694E-1,-9.848993E-2,-8.779991E-1,8.854896E-2,-9.6984975E-2,-1.4402336E-1,-3.4617864E-2,1.595662E0,-8.3139114E-2,-3.4609582E-2,1.6383572E-1,1.2729427E0,2.329062E-1,1.7011985E0,-3.4617715E-2,2.7872193E-1,-1.0851536E-1,-1.5876488E-1,2.2416798E-2,-2.7323823E-2,2.662005E-1,1.1949966E-1,2.747557E-1,8.287819E-2,-4.1456018E-2,9.9436894E-2,-8.975988E-3,-8.3032094E-2,-6.2315617E-2,6.255961E-3],"split_indices":[8,5,0,8,7,0,5,0,5,0,0,0,5,0,5,0,1,7,7,0,0,0,0,0,0,0,0,0,0,0,0],"split_type":[0,0,0,0,0,0,0,0,0,0,0,0,0,0,0,0,0,0,0,0,0,0,0,0,0,0,0,0,0,0,0],"sum_hessian":[1.0675801E3,4.5920343E2,6.0837665E2,2.8590427E2,1.7329918E2,5.724104E1,2.2866322E2,1.6320686E2,1.0092316E1,5.262323E0,2.234009E2,3.2600389E0,1.5994682E2,5.8969374E0,4.1953783E0,1.0489837E2,1.1850253E2,3.8692955E1,1.21253876E2,1.1227905E0,3.072588E0,5.109992E1,5.3798447E1,1.1465247E2,3.8500552E0,3.3653564E1,5.0393906E0,5.3468914E0,1.1590698E2,1.6275748E0,1.445013E0],"tree_param":{"num_deleted":"0","num_feature":"9","num_nodes":"31","size_leaf_vector":"1"}},{"base_weights":[-2.4621645E-1,9.172643E-1,-9.673307E-2,1.7459681E0,-5.567458E-1,-9.517944E-2,2.381108E0,-7.076927E-1,1.5253421E0,-8.117274E-2,2.454477E0,1.3197277E-1,-7.7471036E-1,1.9988836E-1,-2.3187168E-1,2.1193638E0,2.869926E0,-2.1164972E-1,-9.682311E-1,2.134518E-2,-4.3940398E-1,2.329537E-1,1.3510843E-1,7.801822E-2,2.3390867E-1,-3.8401484E-2,9.8708965E-2,-8.410381E-3,-8.069105E-2,-6.0690388E-2,5.971741E-3],"categories":[],"categories_nodes":[],"categories_segments":[],"categories_sizes":[],"default_left":[0,0,0,0,0,0,0,0,0,0,0,0,0,0,0,0,0,0,0,0,0,0,0,0,0,0,0,0,0,0,0],"id":2,"left_children":[1,3,-1,5,7,-1,9,11,13,-1,15,-1,17,-1,19,21,23,25,27,-1,29,-1,-1,-1,-1,-1,-1,-1,-1,-1,-1],"loss_changes":[1.1722935E3,5.799162E2,0E0,5.6897565E2,5.4924488E1,0E0,6.4765625E1,2.6623062E1,2.0927763E1,0E0,2.802185E1,0E0,1.6866806E1,0E0,6.508595E-1,4.2650818E1,8.036316E0,1.6634796E1,3.9506378E0,0E0,7.160903E-1,0E0,0E0,0E0,0E0,0E0,0E0,0E0,0E0,0E0,0E0],"parents":[2147483647,0,0,1,1,3,3,4,4,6,6,7,7,8,8,10,10,12,12,14,14,15,15,16,16,17,17,18,18,20,20],"right_children":[2,4,-1,6,8,-1,10,12,14,-1,16,-1,18,-1,20,22,24,26,28,-1,30,-1,-1,-1,-1,-1,-1,-1,-1,-1,-1],"split_conditions":[-8.451438E-1,7.935849E-1,-9.673307E-2,-8.779991E-1,8.854896E-2,-9.517944E-2,-1.4402336E-1,-3.4617864E-2,1.595662E0,-8.117274E-2,-1.5018463E-1,1.3197277E-1,1.2729427E0,1.9988836E-1,-3.4583125E-2,-3.4617897E-2,-3.4616053E-2,-1.0851536E-1,-1.5876488E-1,2.134518E-2,1.9206033E0,2.329537E-1,1.3510843E-1,7.801822E-2,2.3390867E-1,-3.8401484E-2,9.8708965E-2,-8.410381E-3,-8.069105E-2,-6.0690388E-2,5.971741E-3],"split_indices":[8,5,0,8,7,0,5,0,5,0,7,0,5,0,0,0,0,7,7,0,5,0,0,0,0,0,0,0,0,0,0],"split_type":[0,0,0,0,0,0,0,0,0,0,0,0,0,0,0,0,0,0,0,0,0,0,0,0,0,0,0,0,0,0,0],"sum_hessian":[1.0443549E3,4.729547E2,5.7140015E2,3.0262903E2,1.7032568E2,5.367268E1,2.4895634E2,1.5942763E2,1.0898049E1,4.993862E0,2.4396248E2,3.7543087E0,1.5567332E2,6.741978E0,4.156071E0,1.3841458E2,1.055479E2,4.0354134E1,1.1531919E2,1.1373764E0,3.0186946E0,4.6691856E1,9.1722725E1,3.4494123E0,1.0209848E2,3.45986E1,5.755534E0,5.318428E0,1.1000076E2,1.5687264E0,1.4499682E0],"tree_param":{"num_deleted":"0","num_feature":"9","num_nodes":"31","size_leaf_vector":"1"}},{"base_weights":[-2.360339E-1,8.281871E-1,-9.516632E-2,1.5370493E0,-5.296278E-1,-9.355686E-2,2.0540771E0,-6.7740685E-1,1.3608451E0,-7.931923E-2,2.1130707E0,9.960058E-1,-7.6769495E-1,2.1791227E0,-2.218189E-1,1.7587945E0,2.4368696E0,1.5659245E0,-4.0621664E-2,-2.4286486E-1,-9.518238E-1,1.9435917E-1,7.6032385E-2,2.2506336E-2,-4.3329555E-1,1.9992206E-1,1.00299366E-1,1.9814983E-1,7.23633E-2,1.466702E-1,5.5369873E-2,-4.14399E-2,8.813443E-2,-2.2630853E-4,-7.8455016E-2,-6.0670767E-2,7.070666E-3],"categories":[],"categories_nodes":[],"categories_segments":[],"categories_sizes":[],"default_left":[0,0,0,0,0,0,0,0,0,0,0,0,0,0,0,0,0,0,0,0,0,0,0,0,0,0,0,0,0,0,0,0,0,0,0,0,0],"id":3,"left_children":[1,3,-1,5,7,-1,9,11,13,-1,15,17,19,21,23,25,27,29,-1,31,33,-1,-1,-1,35,-1,-1,-1,-1,-1,-1,-1,-1,-1,-1,-1,-1],"loss_changes":[1.0330381E3,4.6397736E2,0E0,4.4516907E2,4.7240597E1,0E0,4.9891235E1,2.4099281E1,1.6481236E1,0E0,2.5687622E1,7.9441147E0,1.3984154E1,2.2443771E-1,6.664436E-1,4.485721E1,5.96875E0,2.0196724E-1,0E0,1.520039E1,2.9706955E0,0E0,0E0,0E0,7.448734E-1,0E0,0E0,0E0,0E0,0E0,0E0,0E0,0E0,0E0,0E0,0E0,0E0],"parents":[2147483647,0,0,1,1,3,3,4,4,6,6,7,7,8,8,10,10,11,11,12,12,13,13,14,14,15,15,16,16,17,17,19,19,20,20,24,24],"right_children":[2,4,-1,6,8,-1,10,12,14,-1,16,18,20,22,24,26,28,30,-1,32,34,-1,-1,-1,36,-1,-1,-1,-1,-1,-1,-1,-1,-1,-1,-1,-1],"split_conditions":[-8.451438E-1,7.935849E-1,-9.516632E-2,-8.779991E-1,8.854896E-2,-9.355686E-2,-1.4402336E-1,-1.5893261E-1,1.595662E0,-7.931923E-2,-3.4604065E-2,-3.461692E-2,1.2729427E0,1.5029011E0,1.7011985E0,-3.4617897E-2,2.7872193E-1,-4.7335547E-1,-4.0621664E-2,-1.0851536E-1,-1.5876488E-1,1.9435917E-1,7.6032385E-2,2.2506336E-2,-2.7323823E-2,1.9992206E-1,1.00299366E-1,1.9814983E-1,7.23633E-2,1.466702E-1,5.5369873E-2,-4.14399E-2,8.813443E-2,-2.2630853E-4,-7.8455016E-2,-6.0670767E-2,7.070666E-3],"split_indices":[8,5,0,8,7,0,5,7,5,0,0,0,5,5,5,0,1,1,0,7,7,0,0,0,0,0,0,0,0,0,0,0,0,0,0,0,0],"split_type":[0,0,0,0,0,0,0,0,0,0,0,0,0,0,0,0,0,0,0,0,0,0,0,0,0,0,0,0,0,0,0,0,0,0,0,0,0],"sum_hessian":[1.01601855E3,4.8020676E2,5.358118E2,3.1541098E2,1.6479578E2,5.038683E1,2.6502414E2,1.5344276E2,1.1353012E1,4.73568E0,2.6028848E2,7.341573E0,1.4610118E2,7.2353053E0,4.117707E0,1.2736601E2,1.3292245E2,5.2939014E0,2.047672E0,3.8547268E1,1.0755392E2,5.198739E0,2.0365663E0,1.1207929E0,2.9969137E0,5.0054893E1,7.731111E1,1.2893991E2,3.9825459E0,3.2124658E0,2.0814357E0,3.2509583E1,6.0376863E0,3.2071338E0,1.0434679E2,1.5668058E0,1.4301078E0],"tree_param":{"num_deleted":"0","num_feature":"9","num_nodes":"37","size_leaf_vector":"1"}},{"base_weights":[-2.266817E-1,7.5796336E-1,-9.376416E-2,1.3729706E0,-5.191218E-1,-9.209771E-2,1.8059814E0,-6.624375E-1,1.2130922E0,-7.7562295E-2,1.8549224E0,1.5247478E0,-7.32314E-1,1.5499936E-1,-2.1204603E-1,1.5120658E0,2.1269662E0,1.8115766E-2,1.4627704E-1,-2.1769473E-1,-9.119267E-1,2.1461021E-2,-4.1817087E-1,1.6485704E-1,6.606484E-2,1.7333528E-1,5.990119E-2,-3.776516E-2,6.2289953E-2,-8.354145E-3,-7.630406E-2,-5.914242E-2,6.7677125E-3],"categories":[],"categories_nodes":[],"categories_segments":[],"categories_sizes":[],"default_left":[0,0,0,0,0,0,0,0,0,0,0,0,0,0,0,0,0,0,0,0,0,0,0,0,0,0,0,0,0,0,0,0,0],"id":4,"left_children":[1,3,-1,5,7,-1,9,11,13,-1,15,17,19,-1,21,23,25,-1,-1,27,29,-1,31,-1,-1,-1,-1,-1,-1,-1,-1,-1,-1],"loss_changes":[9.17432E2,3.7999216E2,0E0,3.5863116E2,3.995034E1,0E0,3.9674683E1,2.3473854E1,1.3215038E1,0E0,2.2372864E1,1.4996805E0,1.296682E1,0E0,6.1522704E-1,4.5300568E1,6.618042E0,0E0,0E0,1.0039577E1,3.459877E0,0E0,6.9961786E-1,0E0,0E0,0E0,0E0,0E0,0E0,0E0,0E0,0E0,0E0],"parents":[2147483647,0,0,1,1,3,3,4,4,6,6,7,7,8,8,10,10,11,11,12,12,14,14,15,15,16,16,19,19,20,20,22,22],"right_children":[2,4,-1,6,8,-1,10,12,14,-1,16,18,20,-1,22,24,26,-1,-1,28,30,-1,32,-1,-1,-1,-1,-1,-1,-1,-1,-1,-1],"split_conditions":[-8.451438E-1,8.174694E-1,-9.376416E-2,-8.779991E-1,8.854896E-2,-9.209771E-2,-1.4402336E-1,-3.4617864E-2,1.595662E0,-7.7562295E-2,-3.461165E-2,-3.461805E-2,1.2729427E0,1.5499936E-1,-3.4583125E-2,-3.4617614E-2,2.7872193E-1,1.8115766E-2,1.4627704E-1,-1.2011479E-1,-1.5876488E-1,2.1461021E-2,1.9206033E0,1.6485704E-1,6.606484E-2,1.7333528E-1,5.990119E-2,-3.776516E-2,6.2289953E-2,-8.354145E-3,-7.630406E-2,-5.914242E-2,6.7677125E-3],"split_indices":[8,5,0,8,7,0,5,0,5,0,0,0,5,0,0,0,1,0,0,7,7,0,5,0,0,0,0,0,0,0,0,0,0],"split_type":[0,0,0,0,0,0,0,0,0,0,0,0,0,0,0,0,0,0,0,0,0,0,0,0,0,0,0,0,0,0,0,0,0],"sum_hessian":[9.8362634E2,4.8190216E2,5.0172415E2,3.252136E2,1.5668855E2,4.737679E1,2.7783682E2,1.4528581E2,1.1402728E1,4.488323E0,2.7334848E2,3.8533218E0,1.414325E2,7.3216243E0,4.0811033E0,1.23836105E2,1.4951239E2,1.0614593E0,2.7918625E0,3.716392E1,1.0426858E2,1.134966E0,2.9461374E0,6.770472E1,5.6131382E1,1.4476753E2,4.744855E0,3.0024555E1,7.1393642E0,5.312685E0,9.8955894E1,1.5107949E0,1.4353427E0],"tree_param":{"num_deleted":"0","num_feature":"9","num_nodes":"33","size_leaf_vector":"1"}},{"base_weights":[-2.1827246E-1,6.996468E-1,-9.250523E-2,1.2579969E0,-4.8044193E-1,-9.075053E-2,1.6368009E0,-6.215387E-1,1.1321303E0,-7.588824E-2,1.6797374E0,8.643213E-1,-7.1171206E-1,1.7696338E0,-2.0294882E-1,1.388934E0,1.9606637E0,1.3346803E0,-3.8487546E-2,-3.5722828E-1,-9.7651535E-1,1.5872698E-1,6.0769293E-2,-4.3321916E-1,2.9082732E-2,1.5356582E-1,7.317435E-2,7.702037E-2,1.6261196E-1,1.2605448E-1,4.611132E-2,-4.73101E-2,5.092252E-2,1.4276675E-2,-7.986551E-2,2.7952294E-3,-5.8893025E-2],"categories":[],"categories_nodes":[],"categories_segments":[],"categories_sizes":[],"default_left":[0,0,0,0,0,0,0,0,0,0,0,0,0,0,0,0,0,0,0,0,0,0,0,0,0,0,0,0,0,0,0,0,0,0,0,0,0],"id":5,"left_children":[1,3,-1,5,7,-1,9,11,13,-1,15,17,19,21,23,25,27,29,-1,31,33,-1,-1,35,-1,-1,-1,-1,-1,-1,-1,-1,-1,-1,-1,-1,-1],"loss_changes":[8.1877124E2,3.1737457E2,0E0,2.978557E2,3.6000595E1,0E0,3.2940308E1,1.9814621E1,1.1284107E1,0E0,1.9998535E1,6.1162653E0,1.2383987E1,3.9690018E-1,8.156446E-1,3.3499725E1,8.031006E0,3.1153774E-1,0E0,1.4239437E1,2.118904E0,0E0,0E0,5.9920335E-1,0E0,0E0,0E0,0E0,0E0,0E0,0E0,0E0,0E0,0E0,0E0,0E0,0E0],"parents":[2147483647,0,0,1,1,3,3,4,4,6,6,7,7,8,8,10,10,11,11,12,12,13,13,14,14,15,15,16,16,17,17,19,19,20,20,23,23],"right_children":[2,4,-1,6,8,-1,10,12,14,-1,16,18,20,22,24,26,28,30,-1,32,34,-1,-1,36,-1,-1,-1,-1,-1,-1,-1,-1,-1,-1,-1,-1,-1],"split_conditions":[-8.451438E-1,7.935849E-1,-9.250523E-2,-8.779991E-1,8.854896E-2,-9.075053E-2,-1.4402336E-1,-1.5893261E-1,1.595662E0,-7.588824E-2,-1.5460025E-1,-3.461692E-2,1.5029011E0,1.5029011E0,3.5502496E-1,-3.4617715E-2,-3.4614626E-2,-4.7335547E-1,-3.8487546E-2,-1.2011479E-1,-1.5876488E-1,1.5872698E-1,6.0769293E-2,2.0961504E-1,2.9082732E-2,1.5356582E-1,7.317435E-2,7.702037E-2,1.6261196E-1,1.2605448E-1,4.611132E-2,-4.73101E-2,5.092252E-2,1.4276675E-2,-7.986551E-2,2.7952294E-3,-5.8893025E-2],"split_indices":[8,5,0,8,7,0,5,7,5,0,7,0,5,5,7,0,0,1,0,7,7,0,0,7,0,0,0,0,0,0,0,0,0,0,0,0,0],"split_type":[0,0,0,0,0,0,0,0,0,0,0,0,0,0,0,0,0,0,0,0,0,0,0,0,0,0,0,0,0,0,0,0,0,0,0,0,0],"sum_hessian":[9.489616E2,4.7975394E2,4.6920767E2,3.256222E2,1.5413173E2,4.423794E1,2.8138425E2,1.4229572E2,1.1836019E1,4.2521048E0,2.7713214E2,7.650303E0,1.3464542E2,7.790531E0,4.0454874E0,1.3909294E2,1.3803922E2,5.674477E0,1.9758257E0,5.857797E1,7.6067444E1,5.630598E0,2.1599329E0,3.0435565E0,1.0019311E0,6.420596E1,7.488698E1,1.0254845E1,1.2778437E2,3.4879787E0,2.1864984E0,4.773552E1,1.0842449E1,1.2762641E0,7.4791176E1,1.5432818E0,1.5002747E0],"tree_param":{"num_deleted":"0","num_feature":"9","num_nodes":"37","size_leaf_vector":"1"}},{"base_weights":[-2.103648E-1,6.5001756E-1,-9.137158E-2,1.0970594E0,-6.119739E-1,-9.013013E-2,1.4255847E0,-7.32832E-1,7.875597E-1,1.1249819E0,1.7395933E0,2.2141002E-1,-8.36339E-1,1.4305499E0,-1.9382407E-1,1.8388553E0,7.2669894E-1,1.7826148E0,6.326005E-1,1.0989119E-1,-1.3296804E-1,-5.1891553E-1,-9.752048E-1,4.1885313E-2,1.2772332E-1,-4.1830036E-1,2.7676854E-2,1.53628E-1,9.333117E-2,3.9965607E-2,1.0887017E-1,1.4494644E-1,5.4846533E-2,-3.2600623E-2,1.19453415E-1,5.0424687E-3,-5.9867125E-2,-6.48502E-2,9.781257E-3,-8.047765E-2,-3.9099276E-2,2.6566486E-3,-5.739076E-2],"categories":[],"categories_nodes":[],"categories_segments":[],"categories_sizes":[],"default_left":[0,0,0,0,0,0,0,0,0,0,0,0,0,0,0,0,0,0,0,0,0,0,0,0,0,0,0,0,0,0,0,0,0,0,0,0,0,0,0,0,0,0,0],"id":6,"left_children":[1,3,-1,5,7,-1,9,11,13,15,17,19,21,23,25,27,29,31,33,-1,35,37,39,-1,-1,41,-1,-1,-1,-1,-1,-1,-1,-1,-1,-1,-1,-1,-1,-1,-1,-1,-1],"loss_changes":[7.337229E2,2.69212E2,0E0,2.5864313E2,2.1745918E1,0E0,2.7021118E1,1.1615025E1,6.859119E0,4.406375E1,5.935974E0,5.1293726E0,4.104927E0,1.307993E-1,7.517071E-1,8.564606E-1,1.4321571E1,3.316162E0,6.962388E0,0E0,1.2746192E0,6.453409E0,5.804367E-1,0E0,0E0,5.627335E-1,0E0,0E0,0E0,0E0,0E0,0E0,0E0,0E0,0E0,0E0,0E0,0E0,0E0,0E0,0E0,0E0,0E0],"parents":[2147483647,0,0,1,1,3,3,4,4,6,6,7,7,8,8,9,9,10,10,11,11,12,12,13,13,14,14,15,15,16,16,17,17,18,18,20,20,21,21,22,22,25,25],"right_children":[2,4,-1,6,8,-1,10,12,14,16,18,20,22,24,26,28,30,32,34,-1,36,38,40,-1,-1,42,-1,-1,-1,-1,-1,-1,-1,-1,-1,-1,-1,-1,-1,-1,-1,-1,-1],"split_conditions":[-8.451438E-1,1.0529824E0,-9.137158E-2,-8.779991E-1,8.854896E-2,-9.013013E-2,-3.4601077E-2,-1.5876488E-1,1.595662E0,-3.4617897E-2,8.174694E-1,-3.4617815E-2,1.5029011E0,1.9218332E-1,3.5502496E-1,-3.461799E-2,-1.4280838E-1,2.7872193E-1,-1.0851536E-1,1.0989119E-1,-3.461427E-2,-3.45646E-2,-2.6950859E-2,4.1885313E-2,1.2772332E-1,2.0961504E-1,2.7676854E-2,1.53628E-1,9.333117E-2,3.9965607E-2,1.0887017E-1,1.4494644E-1,5.4846533E-2,-3.2600623E-2,1.19453415E-1,5.0424687E-3,-5.9867125E-2,-6.48502E-2,9.781257E-3,-8.047765E-2,-3.9099276E-2,2.6566486E-3,-5.739076E-2],"split_indices":[8,5,0,8,7,0,0,7,5,0,5,0,5,7,7,0,7,1,7,0,0,0,7,0,0,7,0,0,0,0,0,0,0,0,0,0,0,0,0,0,0,0,0],"split_type":[0,0,0,0,0,0,0,0,0,0,0,0,0,0,0,0,0,0,0,0,0,0,0,0,0,0,0,0,0,0,0,0,0,0,0,0,0,0,0,0,0,0,0],"sum_hessian":[9.132975E2,4.7499832E2,4.3829916E2,3.5084674E2,1.2415158E2,4.4848915E1,3.059978E2,1.1472109E2,9.430484E0,1.5867741E2,1.4732039E2,1.1114668E1,1.0360643E2,5.4210167E0,4.009467E0,5.552991E1,1.0314751E2,1.4122171E2,6.098683E0,1.9378183E0,9.176849E0,3.297288E1,7.0633545E1,1.4813035E0,3.9397132E0,2.9907763E0,1.0186912E0,4.786975E1,7.660162E0,7.726356E1,2.5883951E1,1.3692363E2,4.2980795E0,2.999663E0,3.0990195E0,7.6407905E0,1.5360591E0,2.2480757E1,1.0492125E1,6.542773E1,5.2058225E0,1.5459381E0,1.444838E0],"tree_param":{"num_deleted":"0","num_feature":"9","num_nodes":"43","size_leaf_vector":"1"}},{"base_weights":[-2.0281821E-1,6.0715E-1,-9.0347975E-2,1.0079876E0,-6.141474E-1,-8.897606E-2,1.2967002E0,-7.27163E-1,6.712749E-1,1.0035168E0,1.6104116E0,2.4666393E-1,-8.309233E-1,1.1547221E0,-3.9235777E-1,1.5659255E0,5.386909E-1,1.6423166E0,2.6009458E-1,1.1225194E-1,-1.3522159E-1,-5.353102E-1,-9.529706E-1,2.6222E-2,1.1093376E-1,-5.8247957E-2,9.724206E-3,1.315514E-1,1.7896984E-2,2.0277351E-2,9.450046E-2,3.099044E-2,1.3351539E-1,-5.9594125E-2,9.992073E-2,-3.0022582E-2,1.879033E-2,-5.903009E-2,3.279765E-2,-7.877664E-2,-3.7395533E-2],"categories":[],"categories_nodes":[],"categories_segments":[],"categories_sizes":[],"default_left":[0,0,0,0,0,0,0,0,0,0,0,0,0,0,0,0,0,0,0,0,0,0,0,0,0,0,0,0,0,0,0,0,0,0,0,0,0,0,0,0,0],"id":7,"left_children":[1,3,-1,5,7,-1,9,11,13,15,17,19,21,23,25,27,29,31,33,-1,35,37,39,-1,-1,-1,-1,-1,-1,-1,-1,-1,-1,-1,-1,-1,-1,-1,-1,-1,-1],"loss_changes":[6.597947E2,2.3034322E2,0E0,2.1794174E2,1.7423832E1,0E0,2.7057678E1,1.1081135E1,5.5650134E0,4.19785E1,5.98999E0,5.1076503E0,3.0076218E0,9.0511036E-1,7.5329745E-1,7.383377E0,1.6416533E1,4.20932E0,5.5284476E0,0E0,9.129343E-1,6.1950426E0,5.8335876E-1,0E0,0E0,0E0,0E0,0E0,0E0,0E0,0E0,0E0,0E0,0E0,0E0,0E0,0E0,0E0,0E0,0E0,0E0],"parents":[2147483647,0,0,1,1,3,3,4,4,6,6,7,7,8,8,9,9,10,10,11,11,12,12,13,13,14,14,15,15,16,16,17,17,18,18,20,20,21,21,22,22],"right_children":[2,4,-1,6,8,-1,10,12,14,16,18,20,22,24,26,28,30,32,34,-1,36,38,40,-1,-1,-1,-1,-1,-1,-1,-1,-1,-1,-1,-1,-1,-1,-1,-1,-1,-1],"split_conditions":[-8.451438E-1,1.1007515E0,-9.0347975E-2,-8.779991E-1,8.854896E-2,-8.897606E-2,-3.4601077E-2,-1.5876488E-1,1.7011985E0,-3.4617614E-2,4.6496097E-2,-3.4617815E-2,1.5029011E0,1.9218332E-1,-2.7323823E-2,5.864001E-1,-1.4280838E-1,-1.5876488E-1,-1.1294354E-1,1.1225194E-1,-1.5889676E-1,-1.1829191E-1,-2.6950859E-2,2.6222E-2,1.1093376E-1,-5.8247957E-2,9.724206E-3,1.315514E-1,1.7896984E-2,2.0277351E-2,9.450046E-2,3.099044E-2,1.3351539E-1,-5.9594125E-2,9.992073E-2,-3.0022582E-2,1.879033E-2,-5.903009E-2,3.279765E-2,-7.877664E-2,-3.7395533E-2],"split_indices":[8,5,0,8,7,0,0,7,5,0,0,0,5,7,0,5,7,7,7,0,7,7,7,0,0,0,0,0,0,0,0,0,0,0,0,0,0,0,0,0,0],"split_type":[0,0,0,0,0,0,0,0,0,0,0,0,0,0,0,0,0,0,0,0,0,0,0,0,0,0,0,0,0,0,0,0,0,0,0,0,0,0,0,0,0],"sum_hessian":[8.772721E2,4.682636E2,4.090085E2,3.5268488E2,1.1557874E2,4.192829E1,3.1075656E2,1.0663738E2,8.9413595E0,1.628043E2,1.4795227E2,1.0135447E1,9.650194E1,6.0883946E0,2.8529646E0,7.25974E1,9.020691E1,1.4432593E2,3.6263404E0,1.8521649E0,8.283281E0,2.9773369E1,6.672857E1,1.8622472E0,4.2261477E0,1.4735194E0,1.3794451E0,6.837499E1,4.222402E0,6.3440964E1,2.6765947E1,3.3215785E0,1.4100435E2,1.9208889E0,1.7054516E0,5.0158315E0,3.26745E0,2.4699814E1,5.073555E0,6.1669304E1,5.0592656E0],"tree_param":{"num_deleted":"0","num_feature":"9","num_nodes":"41","size_leaf_vector":"1"}},{"base_weights":[-1.9590952E-1,5.6884867E-1,-8.9421354E-2,1.0036813E0,-4.2151475E-1,-8.7353826E-2,1.2732418E0,-5.5669016E-1,8.876317E-1,-7.842205E-2,1.3138E0,7.179402E-1,-6.463618E-1,1.4700081E0,-2.6543683E-1,1.0682372E0,1.5556345E0,1.0935735E0,-3.5819188E-2,-3.404838E-1,-9.0511125E-1,1.3440523E-1,4.5077223E-2,-4.7460386E-1,2.4685454E-2,1.3439389E-1,6.069631E-2,3.1659922E-3,1.2712549E-1,9.651993E-2,1.7381173E-2,-4.334942E-2,3.5765007E-2,1.4888807E-2,-7.4381776E-2,-1.0946483E-2,-5.5803783E-2],"categories":[],"categories_nodes":[],"categories_segments":[],"categories_sizes":[],"default_left":[0,0,0,0,0,0,0,0,0,0,0,0,0,0,0,0,0,0,0,0,0,0,0,0,0,0,0,0,0,0,0,0,0,0,0,0,0],"id":8,"left_children":[1,3,-1,5,7,-1,9,11,13,-1,15,17,19,21,23,25,27,29,-1,31,33,-1,-1,35,-1,-1,-1,-1,-1,-1,-1,-1,-1,-1,-1,-1,-1],"loss_changes":[5.945577E2,1.9900072E2,0E0,1.8256595E2,2.5515776E1,0E0,2.730307E1,1.51827965E1,9.535348E0,0E0,1.4967987E1,4.403204E0,9.255581E0,8.0553627E-1,7.968457E-1,2.5636948E1,6.9773254E0,4.3552685E-1,0E0,9.279005E0,1.9184265E0,0E0,0E0,2.3320764E-1,0E0,0E0,0E0,0E0,0E0,0E0,0E0,0E0,0E0,0E0,0E0,0E0,0E0],"parents":[2147483647,0,0,1,1,3,3,4,4,6,6,7,7,8,8,10,10,11,11,12,12,13,13,14,14,15,15,16,16,17,17,19,19,20,20,23,23],"right_children":[2,4,-1,6,8,-1,10,12,14,-1,16,18,20,22,24,26,28,30,-1,32,34,-1,-1,36,-1,-1,-1,-1,-1,-1,-1,-1,-1,-1,-1,-1,-1],"split_conditions":[-8.451438E-1,7.935849E-1,-8.9421354E-2,-8.779991E-1,6.7801E-2,-8.7353826E-2,-1.4402336E-1,-1.5893261E-1,1.595662E0,-7.842205E-2,-1.5460025E-1,-3.461692E-2,1.5029011E0,1.5029011E0,3.5502496E-1,-3.461799E-2,-3.4616735E-2,1.4486201E0,-3.5819188E-2,-1.2011479E-1,-1.5876488E-1,1.3440523E-1,4.5077223E-2,2.0961504E-1,2.4685454E-2,1.3439389E-1,6.069631E-2,3.1659922E-3,1.2712549E-1,9.651993E-2,1.7381173E-2,-4.334942E-2,3.5765007E-2,1.4888807E-2,-7.4381776E-2,-1.0946483E-2,-5.5803783E-2],"split_indices":[8,5,0,8,7,0,5,7,5,0,7,0,5,5,7,0,0,1,0,7,7,0,0,7,0,0,0,0,0,0,0,0,0,0,0,0,0],"split_type":[0,0,0,0,0,0,0,0,0,0,0,0,0,0,0,0,0,0,0,0,0,0,0,0,0,0,0,0,0,0,0,0,0,0,0,0,0],"sum_hessian":[8.4144464E2,4.6011966E2,3.8132495E2,3.197261E2,1.4039357E2,3.6091854E1,2.8363425E2,1.2777498E2,1.261859E1,4.6049004E0,2.7902936E2,7.9377766E0,1.19837204E2,8.2014475E0,4.417143E0,1.4113533E2,1.3789401E2,6.0500445E0,1.8877316E0,5.5978577E1,6.3858627E1,5.9658246E0,2.235623E0,3.364348E0,1.0527947E0,4.5934418E1,9.520092E1,3.0225048E0,1.348715E2,5.02562E0,1.0244249E0,4.4827633E1,1.1150945E1,1.2665949E0,6.2592033E1,1.9793146E0,1.3850334E0],"tree_param":{"num_deleted":"0","num_feature":"9","num_nodes":"37","size_leaf_vector":"1"}},{"base_weights":[-1.8954848E-1,5.348697E-1,-8.858052E-2,9.49702E-1,-3.7776455E-1,-8.6323E-2,1.1928437E0,-5.0976294E-1,9.0859383E-1,-7.670775E-2,1.2306682E0,-1.3586241E-1,-7.98626E-1,1.3675452E0,-1.7435561E-1,9.7766334E-1,1.4573159E0,-3.0194822E-1,4.464612E-1,8.937332E-2,-8.441396E-1,1.23939715E-1,4.250191E-2,-3.8010594E-1,2.3504853E-2,1.27015E-1,5.1761985E-2,1.1975238E-1,2.4195135E-2,4.306182E-2,-4.188778E-2,6.905111E-2,-3.2871626E-2,-7.515195E-2,-3.9425813E-2,3.8801616E-3,-5.442434E-2],"categories":[],"categories_nodes":[],"categories_segments":[],"categories_sizes":[],"default_left":[0,0,0,0,0,0,0,0,0,0,0,0,0,0,0,0,0,0,0,0,0,0,0,0,0,0,0,0,0,0,0,0,0,0,0,0,0],"id":9,"left_children":[1,3,-1,5,7,-1,9,11,13,-1,15,17,19,21,23,25,27,29,31,-1,33,-1,-1,35,-1,-1,-1,-1,-1,-1,-1,-1,-1,-1,-1,-1,-1],"loss_changes":[5.369244E2,1.7130379E2,0E0,1.545524E2,2.4543526E1,0E0,2.380008E1,1.3852444E1,6.976866E0,0E0,1.4262573E1,5.7001E0,7.2836533E0,6.41016E-1,5.858302E-1,2.5658745E1,6.0515747E0,8.731196E0,5.060693E0,0E0,1.9332314E0,0E0,0E0,5.290776E-1,0E0,0E0,0E0,0E0,0E0,0E0,0E0,0E0,0E0,0E0,0E0,0E0,0E0],"parents":[2147483647,0,0,1,1,3,3,4,4,6,6,7,7,8,8,10,10,11,11,12,12,13,13,14,14,15,15,16,16,17,17,18,18,20,20,23,23],"right_children":[2,4,-1,6,8,-1,10,12,14,-1,16,18,20,22,24,26,28,30,32,-1,34,-1,-1,36,-1,-1,-1,-1,-1,-1,-1,-1,-1,-1,-1,-1,-1],"split_conditions":[-8.451438E-1,7.6247936E-1,-8.858052E-2,-8.779991E-1,8.854896E-2,-8.6323E-2,-1.4402336E-1,1.3884773E0,1.595662E0,-7.670775E-2,-3.4609582E-2,-3.4545314E-2,-1.5895112E-1,1.5029011E0,3.5502496E-1,-3.461799E-2,2.7872193E-1,-1.5885249E-1,-1.6341642E-2,8.937332E-2,-1.010172E-1,1.23939715E-1,4.250191E-2,2.0961504E-1,2.3504853E-2,1.27015E-1,5.1761985E-2,1.1975238E-1,2.4195135E-2,4.306182E-2,-4.188778E-2,6.905111E-2,-3.2871626E-2,-7.515195E-2,-3.9425813E-2,3.8801616E-3,-5.442434E-2],"split_indices":[8,5,0,8,7,0,5,5,5,0,0,0,7,5,7,0,1,7,0,0,7,0,0,7,0,0,0,0,0,0,0,0,0,0,0,0,0],"split_type":[0,0,0,0,0,0,0,0,0,0,0,0,0,0,0,0,0,0,0,0,0,0,0,0,0,0,0,0,0,0,0,0,0,0,0,0,0],"sum_hessian":[8.057518E2,4.505304E2,3.552214E2,3.0971204E2,1.4081836E2,3.277813E1,2.7693393E2,1.2826073E2,1.2557628E1,4.3634486E0,2.7257047E2,5.6542805E1,7.171792E1,8.635238E0,3.9223905E0,1.3130713E2,1.4126334E2,4.4369545E1,1.2173259E1,1.1178712E0,7.060005E1,6.39352E0,2.2417176E0,2.8555334E0,1.0668571E0,4.4817493E1,8.648963E1,1.3629503E2,4.9683137E0,8.9632845E0,3.540626E1,8.18741E0,3.9858494E0,5.4223408E1,1.6376644E1,1.5215603E0,1.3339729E0],"tree_param":{"num_deleted":"0","num_feature":"9","num_nodes":"37","size_leaf_vector":"1"}},{"base_weights":[-1.8345653E-1,5.045541E-1,-8.7815806E-2,8.257448E-1,-5.4524225E-1,-8.6190015E-2,1.0447562E0,-6.3692397E-1,7.427436E-1,7.817916E-1,1.3400778E0,2.3274851E-1,-7.3947954E-1,1.0165696E-1,-2.6934063E-1,1.4435774E0,4.597993E-1,1.3693144E0,1.409424E-1,9.823936E-2,-1.1239773E-1,-4.115072E-1,-8.8871634E-1,-5.42241E-2,2.3888182E-2,1.21078E-1,7.2218366E-2,-7.355681E-2,4.1325204E-2,1.9197399E-2,1.11621775E-1,-6.206878E-2,8.710242E-2,-3.3578686E-2,1.7680483E-2,-5.381498E-2,4.2346142E-2,-4.406154E-2,-7.672496E-2],"categories":[],"categories_nodes":[],"categories_segments":[],"categories_sizes":[],"default_left":[0,0,0,0,0,0,0,0,0,0,0,0,0,0,0,0,0,0,0,0,0,0,0,0,0,0,0,0,0,0,0,0,0,0,0,0,0,0,0],"id":10,"left_children":[1,3,-1,5,7,-1,9,11,13,15,17,19,21,-1,23,25,27,29,31,-1,33,35,37,-1,-1,-1,-1,-1,-1,-1,-1,-1,-1,-1,-1,-1,-1,-1,-1],"loss_changes":[4.8591995E2,1.4914195E2,0E0,1.4203323E2,1.2743696E1,0E0,2.2536224E1,8.872288E0,4.278761E0,3.4079056E1,4.772751E0,3.933865E0,3.916851E0,0E0,9.796905E-1,6.33461E-1,9.177118E0,3.715271E0,4.7429533E0,0E0,1.0273703E0,7.5374336E0,8.8085175E-1,0E0,0E0,0E0,0E0,0E0,0E0,0E0,0E0,0E0,0E0,0E0,0E0,0E0,0E0,0E0,0E0],"parents":[2147483647,0,0,1,1,3,3,4,4,6,6,7,7,8,8,9,9,10,10,11,11,12,12,14,14,15,15,16,16,17,17,18,18,20,20,21,21,22,22],"right_children":[2,4,-1,6,8,-1,10,12,14,16,18,20,22,-1,24,26,28,30,32,-1,34,36,38,-1,-1,-1,-1,-1,-1,-1,-1,-1,-1,-1,-1,-1,-1,-1,-1],"split_conditions":[-8.451438E-1,1.1007515E0,-8.7815806E-2,-8.779991E-1,1.9218332E-1,-8.6190015E-2,-3.4601077E-2,-1.5876488E-1,1.6612058E0,-3.4617897E-2,4.6496097E-2,-3.4617815E-2,1.5029011E0,1.0165696E-1,1.9206033E0,-3.461799E-2,-1.4402336E-1,-1.5876488E-1,-1.1294354E-1,9.823936E-2,-1.5891548E-1,-1.1829191E-1,-3.4607723E-2,-5.42241E-2,2.3888182E-2,1.21078E-1,7.2218366E-2,-7.355681E-2,4.1325204E-2,1.9197399E-2,1.11621775E-1,-6.206878E-2,8.710242E-2,-3.3578686E-2,1.7680483E-2,-5.381498E-2,4.2346142E-2,-4.406154E-2,-7.672496E-2],"split_indices":[8,5,0,8,7,0,0,7,5,0,0,0,5,0,5,0,5,7,7,0,7,7,0,0,0,0,0,0,0,0,0,0,0,0,0,0,0,0,0],"split_type":[0,0,0,0,0,0,0,0,0,0,0,0,0,0,0,0,0,0,0,0,0,0,0,0,0,0,0,0,0,0,0,0,0,0,0,0,0,0,0],"sum_hessian":[7.70638E2,4.3997992E2,3.3065808E2,3.370662E2,1.02913734E2,3.4381924E1,3.0268427E2,9.654681E1,6.366929E0,1.6204294E2,1.4064131E2,1.0050338E1,8.649647E1,4.016253E0,2.350676E0,5.189687E1,1.1014607E2,1.3715535E2,3.4859648E0,1.9292824E0,8.121056E0,2.8224941E1,5.8271523E1,1.2548003E0,1.0958757E0,4.436493E1,7.5319386E0,3.753302E0,1.0639277E2,3.311832E0,1.3384352E2,1.8642244E0,1.6217405E0,4.090992E0,4.0300636E0,2.2315153E1,5.9097867E0,1.1560981E1,4.6710545E1],"tree_param":{"num_deleted":"0","num_feature":"9","num_nodes":"39","size_leaf_vector":"1"}},{"base_weights":[-1.7764206E-1,4.762518E-1,-8.7118745E-2,8.460545E-1,-3.4781218E-1,-8.4568605E-2,1.0516317E0,-4.7577876E-1,7.940598E-1,-7.394366E-2,1.084722E0,5.982171E-1,-5.5827224E-1,1.2645128E0,-2.2583222E-1,8.775766E-1,1.3634443E0,9.145362E-1,-3.4175087E-2,-2.829911E-1,-8.4014326E-1,1.1566142E-1,3.6734067E-2,-4.221134E-1,2.1787452E-2,1.15618244E-1,5.2334785E-2,2.6714062E-2,1.12147674E-1,9.0780474E-2,2.5874423E-2,-4.166057E-2,2.2054488E-2,-3.2464635E-2,-7.587087E-2,-6.914899E-3,-5.283702E-2],"categories":[],"categories_nodes":[],"categories_segments":[],"categories_sizes":[],"default_left":[0,0,0,0,0,0,0,0,0,0,0,0,0,0,0,0,0,0,0,0,0,0,0,0,0,0,0,0,0,0,0,0,0,0,0,0,0],"id":11,"left_children":[1,3,-1,5,7,-1,9,11,13,-1,15,17,19,21,23,25,27,29,-1,31,33,-1,-1,35,-1,-1,-1,-1,-1,-1,-1,-1,-1,-1,-1,-1,-1],"loss_changes":[4.4027237E2,1.3144058E2,0E0,1.1744565E2,1.9959747E1,0E0,1.8581543E1,1.1065977E1,6.9451237E0,0E0,1.4097015E1,3.349834E0,8.531017E0,7.447262E-1,6.263406E-1,1.8679619E1,3.925293E0,5.820441E-1,0E0,7.938302E0,2.2163162E0,0E0,0E0,2.7445143E-1,0E0,0E0,0E0,0E0,0E0,0E0,0E0,0E0,0E0,0E0,0E0,0E0,0E0],"parents":[2147483647,0,0,1,1,3,3,4,4,6,6,7,7,8,8,10,10,11,11,12,12,13,13,14,14,15,15,16,16,17,17,19,19,20,20,23,23],"right_children":[2,4,-1,6,8,-1,10,12,14,-1,16,18,20,22,24,26,28,30,-1,32,34,-1,-1,36,-1,-1,-1,-1,-1,-1,-1,-1,-1,-1,-1,-1,-1],"split_conditions":[-8.451438E-1,7.6247936E-1,-8.7118745E-2,-8.779991E-1,6.7801E-2,-8.4568605E-2,-1.4402336E-1,-1.5893261E-1,1.595662E0,-7.394366E-2,-1.5018463E-1,-3.461692E-2,1.5029011E0,1.5029011E0,3.5502496E-1,-3.461799E-2,-3.4616053E-2,-4.7335547E-1,-3.4175087E-2,-3.4571726E-2,-3.4607723E-2,1.1566142E-1,3.6734067E-2,2.0961504E-1,2.1787452E-2,1.15618244E-1,5.2334785E-2,2.6714062E-2,1.12147674E-1,9.0780474E-2,2.5874423E-2,-4.166057E-2,2.2054488E-2,-3.2464635E-2,-7.587087E-2,-6.914899E-3,-5.283702E-2],"split_indices":[8,5,0,8,7,0,5,7,5,0,7,0,5,5,7,0,0,1,0,0,0,0,0,7,0,0,0,0,0,0,0,0,0,0,0,0,0],"split_type":[0,0,0,0,0,0,0,0,0,0,0,0,0,0,0,0,0,0,0,0,0,0,0,0,0,0,0,0,0,0,0,0,0,0,0,0,0],"sum_hessian":[7.369395E2,4.2935324E2,3.0758624E2,2.9634177E2,1.3301147E2,2.8486012E1,2.6785574E2,1.2013194E2,1.2879533E1,3.9682264E0,2.638875E2,8.123189E0,1.1200876E2,8.649751E0,4.2297826E0,1.5376126E2,1.1012625E2,6.290735E0,1.8324547E0,5.7680622E1,5.4328136E1,6.4114985E0,2.2382524E0,3.143804E0,1.0859782E0,4.187781E1,1.1188345E2,4.3087015E0,1.0581755E2,3.9131513E0,2.3775835E0,4.0508446E1,1.7172174E1,1.1785719E1,4.2542416E1,1.8711842E0,1.27262E0],"tree_param":{"num_deleted":"0","num_feature":"9","num_nodes":"37","size_leaf_vector":"1"}},{"base_weights":[-1.7204115E-1,4.5016345E-1,-8.648198E-2,7.983632E-1,-3.2982624E-1,-8.3770424E-2,9.8806566E-1,-4.494999E-1,7.821093E-1,7.4234706E-1,1.2627276E0,-1.6519868E-1,-7.7476877E-1,1.0985167E0,-3.3327976E-1,1.3334322E0,4.4319013E-1,1.2915627E0,1.9732434E-1,-2.9406545E-1,4.8915064E-1,3.6424258E-1,-8.503508E-1,1.08017534E-1,4.4533733E-1,-5.4172866E-2,1.2233488E-2,1.1112625E-1,5.1081583E-2,2.0687567E-2,8.083232E-2,1.8903852E-2,1.0544734E-1,-9.198805E-2,8.4502E-2,6.107974E-2,-3.1629264E-2,-9.990889E-3,7.818077E-2,6.077138E-2,-7.0545534E-3,-7.549795E-2,-4.3038424E-2,-2.506267E-2,8.50002E-2],"categories":[],"categories_nodes":[],"categories_segments":[],"categories_sizes":[],"default_left":[0,0,0,0,0,0,0,0,0,0,0,0,0,0,0,0,0,0,0,0,0,0,0,0,0,0,0,0,0,0,0,0,0,0,0,0,0,0,0,0,0,0,0,0,0],"id":12,"left_children":[1,3,-1,5,7,-1,9,11,13,15,17,19,21,23,25,27,29,31,33,35,37,39,41,-1,43,-1,-1,-1,-1,-1,-1,-1,-1,-1,-1,-1,-1,-1,-1,-1,-1,-1,-1,-1,-1],"loss_changes":[3.9946222E2,1.1419209E2,0E0,1.0267023E2,1.7673956E1,0E0,1.6863922E1,1.0798935E1,4.9589605E0,2.4455467E1,3.5274963E0,5.5677676E0,5.030777E0,1.1037302E0,7.126622E-1,9.343567E-1,9.742605E0,3.039444E0,6.334696E0,6.1259265E0,3.4065802E0,8.02694E-1,1.0010071E0,0E0,2.382105E0,0E0,0E0,0E0,0E0,0E0,0E0,0E0,0E0,0E0,0E0,0E0,0E0,0E0,0E0,0E0,0E0,0E0,0E0,0E0,0E0],"parents":[2147483647,0,0,1,1,3,3,4,4,6,6,7,7,8,8,9,9,10,10,11,11,12,12,13,13,14,14,15,15,16,16,17,17,18,18,19,19,20,20,21,21,22,22,24,24],"right_children":[2,4,-1,6,8,-1,10,12,14,16,18,20,22,24,26,28,30,32,34,36,38,40,42,-1,44,-1,-1,-1,-1,-1,-1,-1,-1,-1,-1,-1,-1,-1,-1,-1,-1,-1,-1,-1,-1],"split_conditions":[-8.451438E-1,7.6247936E-1,-8.648198E-2,-8.779991E-1,8.854896E-2,-8.3770424E-2,-3.4602012E-2,1.5029011E0,1.7011985E0,-3.4617897E-2,1.8399404E-2,-1.0651378E-1,-1.5876488E-1,1.5029011E0,-2.7323823E-2,2.6185184E0,-1.4280838E-1,-1.5876488E-1,-1.5683082E-1,-3.4617815E-2,-3.4604065E-2,-3.461751E-2,-1.010172E-1,1.08017534E-1,3.2195574E-1,-5.4172866E-2,1.2233488E-2,1.1112625E-1,5.1081583E-2,2.0687567E-2,8.083232E-2,1.8903852E-2,1.0544734E-1,-9.198805E-2,8.4502E-2,6.107974E-2,-3.1629264E-2,-9.990889E-3,7.818077E-2,6.077138E-2,-7.0545534E-3,-7.549795E-2,-4.3038424E-2,-2.506267E-2,8.50002E-2],"split_indices":[8,5,0,8,7,0,0,5,5,0,0,7,7,5,0,1,7,7,7,0,0,0,7,0,7,0,0,0,0,0,0,0,0,0,0,0,0,0,0,0,0,0,0,0,0],"split_type":[0,0,0,0,0,0,0,0,0,0,0,0,0,0,0,0,0,0,0,0,0,0,0,0,0,0,0,0,0,0,0,0,0,0,0,0,0,0,0,0,0,0,0,0,0],"sum_hessian":[7.0443506E2,4.1848462E2,2.859504E2,2.8930896E2,1.2917566E2,2.6545448E1,2.6276352E2,1.1716171E2,1.2013949E1,1.4064351E2,1.2212001E2,6.3322536E1,5.3839176E1,9.370816E0,2.6431336E0,4.6100048E1,9.454346E1,1.1869526E2,3.4247558E0,5.3363743E1,9.958791E0,3.112658E0,5.0726517E1,5.993913E0,3.376903E0,1.3180964E0,1.3250374E0,4.1757355E1,4.342692E0,7.2428154E1,2.21153E1,3.1537566E0,1.155415E2,1.2015618E0,2.223194E0,4.093299E0,4.9270447E1,4.7400246E0,5.2187667E0,1.2986479E0,1.8140101E0,3.7496826E1,1.322969E1,1.735727E0,1.6411762E0],"tree_param":{"num_deleted":"0","num_feature":"9","num_nodes":"45","size_leaf_vector":"1"}},{"base_weights":[-1.6629541E-1,4.2714542E-1,-8.589904E-2,6.944651E-1,-4.8307455E-1,-8.393551E-2,8.685911E-1,-5.435921E-1,9.1016844E-2,6.247374E-1,1.1592895E0,2.3334566E-1,-6.410116E-1,1.129371E0,2.670873E-1,1.1966782E0,2.0885791E-1,8.511936E-2,-7.134026E-2,-8.023251E-1,-2.1497154E-1,9.663121E-2,1.5676358E-3,2.9167153E-3,6.505295E-2,9.7255506E-2,-2.875812E-2,6.713945E-2,-1.393036E-2,-3.1210952E-2,2.1190815E-2,-4.0140525E-2,-7.251532E-2,5.3304765E-2,-4.3244667E-2],"categories":[],"categories_nodes":[],"categories_segments":[],"categories_sizes":[],"default_left":[0,0,0,0,0,0,0,0,0,0,0,0,0,0,0,0,0,0,0,0,0,0,0,0,0,0,0,0,0,0,0,0,0,0,0],"id":13,"left_children":[1,3,-1,5,7,-1,9,11,-1,13,15,17,19,21,23,25,27,-1,29,31,33,-1,-1,-1,-1,-1,-1,-1,-1,-1,-1,-1,-1,-1,-1],"loss_changes":[3.632942E2,9.9629906E1,0E0,9.680893E1,9.763073E0,0E0,1.9671661E1,7.0033264E0,0E0,2.8329338E1,4.3726807E0,2.8148654E0,5.3757286E0,5.6828613E0,1.18274E1,4.1343994E0,1.6273314E0,0E0,1.0524945E0,1.3662376E0,7.113988E0,0E0,0E0,0E0,0E0,0E0,0E0,0E0,0E0,0E0,0E0,0E0,0E0,0E0,0E0],"parents":[2147483647,0,0,1,1,3,3,4,4,6,6,7,7,9,9,10,10,11,11,12,12,13,13,14,14,15,15,16,16,18,18,19,19,20,20],"right_children":[2,4,-1,6,8,-1,10,12,-1,14,16,18,20,22,24,26,28,-1,30,32,34,-1,-1,-1,-1,-1,-1,-1,-1,-1,-1,-1,-1,-1,-1],"split_conditions":[-8.451438E-1,1.1007515E0,-8.589904E-2,-8.779991E-1,4.0744907E-1,-8.393551E-2,-3.4601077E-2,-1.5876488E-1,9.1016844E-2,-3.4617614E-2,1.4108685E-1,-3.4617815E-2,-1.010172E-1,5.864001E-1,-1.4280838E-1,2.6947388E-1,-3.4550074E-2,8.511936E-2,-1.5891548E-1,1.3884773E0,1.5029011E0,9.663121E-2,1.5676358E-3,2.9167153E-3,6.505295E-2,9.7255506E-2,-2.875812E-2,6.713945E-2,-1.393036E-2,-3.1210952E-2,2.1190815E-2,-4.0140525E-2,-7.251532E-2,5.3304765E-2,-4.3244667E-2],"split_indices":[8,5,0,8,7,0,0,7,0,0,1,0,7,5,7,0,0,0,7,5,5,0,0,0,0,0,0,0,0,0,0,0,0,0,0],"split_type":[0,0,0,0,0,0,0,0,0,0,0,0,0,0,0,0,0,0,0,0,0,0,0,0,0,0,0,0,0,0,0,0,0,0,0],"sum_hessian":[6.7277246E2,4.0708206E2,2.6569043E2,3.1485135E2,9.22307E1,2.8130754E1,2.867206E2,8.955159E1,2.6791036E0,1.57636E2,1.2908461E2,9.822238E0,7.9729355E1,6.448784E1,9.314816E1,1.2394951E2,5.1350985E0,1.9671699E0,7.8550677E0,5.7191467E1,2.2537886E1,6.0144093E1,4.343744E0,6.623945E1,2.690871E1,1.2266933E2,1.2801859E0,1.4904904E0,3.6446078E0,3.949733E0,3.905335E0,1.6211233E1,4.0980236E1,5.797913E0,1.6739973E1],"tree_param":{"num_deleted":"0","num_feature":"9","num_nodes":"35","size_leaf_vector":"1"}},{"base_weights":[-1.6098419E-1,4.0482706E-1,-8.53642E-2,7.19043E-1,-3.0091962E-1,-8.228084E-2,8.8269544E-1,-4.1337824E-1,7.2065824E-1,-7.529998E-2,9.1700554E-1,-1.5562506E-1,-7.313835E-1,1.0146511E0,-3.089299E-1,6.8163043E-1,1.1508714E0,-3.1516105E-1,2.6928145E-1,-1.8321341E-1,-7.2263256E-2,1.0066857E-1,4.084576E-1,-5.1810797E-2,1.1926977E-2,1.0432882E-1,3.2733694E-2,9.584005E-2,4.5681368E-3,3.0711645E-2,-4.163956E-2,4.615215E-2,-3.2150242E-2,5.170296E-2,-3.4463834E-2,-2.190992E-2,7.599526E-2],"categories":[],"categories_nodes":[],"categories_segments":[],"categories_sizes":[],"default_left":[0,0,0,0,0,0,0,0,0,0,0,0,0,0,0,0,0,0,0,0,0,0,0,0,0,0,0,0,0,0,0,0,0,0,0,0,0],"id":14,"left_children":[1,3,-1,5,7,-1,9,11,13,-1,15,17,19,21,23,25,27,29,31,33,-1,-1,35,-1,-1,-1,-1,-1,-1,-1,-1,-1,-1,-1,-1,-1,-1],"loss_changes":[3.304615E2,8.825632E1,0E0,7.955563E1,1.4430015E1,0E0,1.663263E1,9.021185E0,4.1161933E0,0E0,1.2858444E1,4.3436728E0,4.510618E0,9.642296E-1,6.4837635E-1,2.0832054E1,6.265274E0,6.82226E0,3.8839154E0,2.9689784E0,0E0,0E0,1.867282E0,0E0,0E0,0E0,0E0,0E0,0E0,0E0,0E0,0E0,0E0,0E0,0E0,0E0,0E0],"parents":[2147483647,0,0,1,1,3,3,4,4,6,6,7,7,8,8,10,10,11,11,12,12,13,13,14,14,15,15,16,16,17,17,18,18,19,19,22,22],"right_children":[2,4,-1,6,8,-1,10,12,14,-1,16,18,20,22,24,26,28,30,32,34,-1,-1,36,-1,-1,-1,-1,-1,-1,-1,-1,-1,-1,-1,-1,-1,-1],"split_conditions":[-8.451438E-1,7.6247936E-1,-8.53642E-2,-8.779991E-1,8.854896E-2,-8.228084E-2,-1.4402336E-1,1.5029011E0,1.7011985E0,-7.529998E-2,-3.4609582E-2,-3.45646E-2,-3.4607723E-2,1.5029011E0,-2.7323823E-2,-3.461799E-2,2.7872193E-1,-1.5885249E-1,-1.6341642E-2,-1.5876488E-1,-7.2263256E-2,1.0066857E-1,3.2195574E-1,-5.1810797E-2,1.1926977E-2,1.0432882E-1,3.2733694E-2,9.584005E-2,4.5681368E-3,3.0711645E-2,-4.163956E-2,4.615215E-2,-3.2150242E-2,5.170296E-2,-3.4463834E-2,-2.190992E-2,7.599526E-2],"split_indices":[8,5,0,8,7,0,5,5,5,0,0,0,0,5,0,0,1,7,0,7,0,0,7,0,0,0,0,0,0,0,0,0,0,0,0,0,0],"split_type":[0,0,0,0,0,0,0,0,0,0,0,0,0,0,0,0,0,0,0,0,0,0,0,0,0,0,0,0,0,0,0,0,0,0,0,0,0],"sum_hessian":[6.4275446E2,3.9601114E2,2.4674333E2,2.7400046E2,1.2201065E2,2.3009548E1,2.5099092E2,1.1044758E2,1.1563078E1,4.1461353E0,2.4684479E2,6.1825478E1,4.86221E1,9.005981E0,2.557097E0,1.2497645E2,1.2186834E2,4.5136677E1,1.6688799E1,1.2100939E1,3.652116E1,5.656201E0,3.34978E0,1.2320182E0,1.3250787E0,3.6895622E1,8.8080826E1,1.1674274E2,5.1256084E0,1.0050427E1,3.508625E1,1.1539984E1,5.1488156E0,2.4114187E0,9.68952E0,1.7007954E0,1.6489847E0],"tree_param":{"num_deleted":"0","num_feature":"9","num_nodes":"37","size_leaf_vector":"1"}},{"base_weights":[-1.5603742E-1,3.8411492E-1,-8.4872395E-2,6.826187E-1,-2.848395E-1,-8.158572E-2,8.3530295E-1,-3.955618E-1,6.6163415E-1,6.056431E-1,1.1124864E0,-1.5355822E-1,-7.0657027E-1,9.9170804E-2,3.335076E-2,1.01253E-1,3.64815E-1,1.1429267E0,7.6278575E-2,6.9357204E-1,-2.2564293E-1,-1.7068991E-1,-8.8333106E-1,-3.923787E-1,9.7980924E-2,-7.1662284E-2,3.3535484E-2,8.247099E-3,9.379516E-2,-9.3183696E-2,7.578324E-2,2.1323662E-2,8.765035E-2,-3.3414986E-2,1.681415E-2,-2.7584743E-2,7.5690076E-2,-7.231768E-2,-1.9012468E-2,-4.8770256E-2,3.5774675E-3],"categories":[],"categories_nodes":[],"categories_segments":[],"categories_sizes":[],"default_left":[0,0,0,0,0,0,0,0,0,0,0,0,0,0,0,0,0,0,0,0,0,0,0,0,0,0,0,0,0,0,0,0,0,0,0,0,0,0,0,0,0],"id":15,"left_children":[1,3,-1,5,7,-1,9,11,13,15,17,19,21,-1,23,-1,25,27,29,31,33,35,37,39,-1,-1,-1,-1,-1,-1,-1,-1,-1,-1,-1,-1,-1,-1,-1,-1,-1],"loss_changes":[3.0085504E2,7.72054E1,0E0,7.024489E1,1.2805689E1,0E0,1.4956772E1,8.004236E0,4.647087E0,2.1231339E1,3.3845062E0,3.9362469E0,4.2909355E0,0E0,4.1395555E0,0E0,7.326149E0,3.1582184E0,5.657127E0,5.834801E-1,4.925256E0,2.8289952E0,2.5188828E-1,6.0386E-1,0E0,0E0,0E0,0E0,0E0,0E0,0E0,0E0,0E0,0E0,0E0,0E0,0E0,0E0,0E0,0E0,0E0],"parents":[2147483647,0,0,1,1,3,3,4,4,6,6,7,7,8,8,9,9,10,10,11,11,12,12,14,14,16,16,17,17,18,18,19,19,20,20,21,21,22,22,23,23],"right_children":[2,4,-1,6,8,-1,10,12,14,16,18,20,22,-1,24,-1,26,28,30,32,34,36,38,40,-1,-1,-1,-1,-1,-1,-1,-1,-1,-1,-1,-1,-1,-1,-1,-1,-1],"split_conditions":[-8.451438E-1,7.6247936E-1,-8.4872395E-2,-8.779991E-1,6.7801E-2,-8.158572E-2,-3.4602012E-2,1.5029011E0,1.5029011E0,-3.461799E-2,1.8399404E-2,-3.4617815E-2,-3.4607723E-2,9.9170804E-2,1.2588685E0,1.01253E-1,-1.4402336E-1,-1.5876488E-1,-1.5683082E-1,7.893078E-1,-3.4571726E-2,-1.04889475E-1,2.1618485E-2,-2.7323823E-2,9.7980924E-2,-7.1662284E-2,3.3535484E-2,8.247099E-3,9.379516E-2,-9.3183696E-2,7.578324E-2,2.1323662E-2,8.765035E-2,-3.3414986E-2,1.681415E-2,-2.7584743E-2,7.5690076E-2,-7.231768E-2,-1.9012468E-2,-4.8770256E-2,3.5774675E-3],"split_indices":[8,5,0,8,7,0,0,5,5,0,0,0,0,0,7,0,5,7,7,3,0,7,7,0,0,0,0,0,0,0,0,0,0,0,0,0,0,0,0,0,0],"split_type":[0,0,0,0,0,0,0,0,0,0,0,0,0,0,0,0,0,0,0,0,0,0,0,0,0,0,0,0,0,0,0,0,0,0,0,0,0,0,0,0,0],"sum_hessian":[6.1370593E2,3.8466138E2,2.2904457E2,2.6596216E2,1.1869922E2,2.142233E1,2.4453983E2,1.0678871E2,1.1910507E1,1.3547623E2,1.090636E2,6.0896973E1,4.5891743E1,5.6966853E0,6.2138214E0,3.5079906E1,1.0039632E2,1.0585105E2,3.212548E0,4.0994253E0,5.6797546E1,1.1870363E1,3.4021378E1,5.0720687E0,1.1417528E0,3.5118682E0,9.688445E1,3.0453622E0,1.02805695E2,1.1857388E0,2.0268092E0,2.7944195E0,1.305006E0,3.94538E1,1.7343748E1,1.0867328E1,1.0030355E0,3.257987E1,1.4415078E0,3.124422E0,1.9476466E0],"tree_param":{"num_deleted":"0","num_feature":"9","num_nodes":"41","size_leaf_vector":"1"}},{"base_weights":[-1.5090442E-1,3.6476755E-1,-8.441911E-2,6.480944E-1,-2.6797092E-1,-8.091386E-2,7.906666E-1,-3.7121117E-1,6.6110253E-1,5.6611395E-1,1.0693116E0,-1.3354427E-1,-6.866745E-1,9.408851E-1,-2.9164484E-1,9.851109E-2,3.3545902E-1,6.936179E-1,1.1746782E0,-2.4762714E-1,4.0990067E-1,-1.5554042E-1,-8.6832094E-1,9.362957E-2,3.9015916E-1,-4.942532E-2,1.0482479E-2,1.4998372E-2,6.691992E-2,7.1935326E-2,-5.429127E-2,-2.3649896E-2,9.580973E-2,4.2884815E-2,-2.9306706E-2,-7.4815657E-3,6.3217394E-2,5.003914E-2,-3.207495E-2,-2.7003877E-2,-7.102135E-2,-1.9219376E-2,7.041364E-2],"categories":[],"categories_nodes":[],"categories_segments":[],"categories_sizes":[],"default_left":[0,0,0,0,0,0,0,0,0,0,0,0,0,0,0,0,0,0,0,0,0,0,0,0,0,0,0,0,0,0,0,0,0,0,0,0,0,0,0,0,0,0,0],"id":16,"left_children":[1,3,-1,5,7,-1,9,11,13,15,17,19,21,23,25,-1,27,29,31,33,35,37,39,-1,41,-1,-1,-1,-1,-1,-1,-1,-1,-1,-1,-1,-1,-1,-1,-1,-1,-1,-1],"loss_changes":[2.742607E2,6.735735E1,0E0,6.2113297E1,1.1430901E1,0E0,1.4361664E1,7.8251734E0,3.479051E0,2.0238552E1,3.3662186E0,3.912119E0,4.2189713E0,7.477684E-1,5.624304E-1,0E0,7.354623E0,7.8251276E0,3.0879517E0,4.9802084E0,2.1877513E0,2.6885505E0,4.5175552E-2,0E0,1.540689E0,0E0,0E0,0E0,0E0,0E0,0E0,0E0,0E0,0E0,0E0,0E0,0E0,0E0,0E0,0E0,0E0,0E0,0E0],"parents":[2147483647,0,0,1,1,3,3,4,4,6,6,7,7,8,8,9,9,10,10,11,11,12,12,13,13,14,14,16,16,17,17,18,18,19,19,20,20,21,21,22,22,24,24],"right_children":[2,4,-1,6,8,-1,10,12,14,16,18,20,22,24,26,-1,28,30,32,34,36,38,40,-1,42,-1,-1,-1,-1,-1,-1,-1,-1,-1,-1,-1,-1,-1,-1,-1,-1,-1,-1],"split_conditions":[-8.451438E-1,7.6247936E-1,-8.441911E-2,-8.779991E-1,8.854896E-2,-8.091386E-2,-3.4602012E-2,1.5029011E0,1.7011985E0,-3.461799E-2,-1.5460025E-1,-1.0651378E-1,-3.4607723E-2,1.5029011E0,-2.7323823E-2,9.851109E-2,-1.4280838E-1,-2.928627E-2,7.871415E-2,-1.5893261E-1,-3.4604065E-2,-1.5876488E-1,1.560113E0,9.362957E-2,3.2195574E-1,-4.942532E-2,1.0482479E-2,1.4998372E-2,6.691992E-2,7.1935326E-2,-5.429127E-2,-2.3649896E-2,9.580973E-2,4.2884815E-2,-2.9306706E-2,-7.4815657E-3,6.3217394E-2,5.003914E-2,-3.207495E-2,-2.7003877E-2,-7.102135E-2,-1.9219376E-2,7.041364E-2],"split_indices":[8,5,0,8,7,0,0,5,5,0,7,7,0,5,0,0,7,0,5,7,0,7,5,0,7,0,0,0,0,0,0,0,0,0,0,0,0,0,0,0,0,0,0],"split_type":[0,0,0,0,0,0,0,0,0,0,0,0,0,0,0,0,0,0,0,0,0,0,0,0,0,0,0,0,0,0,0,0,0,0,0,0,0,0,0,0,0,0,0],"sum_hessian":[5.862879E2,3.7375882E2,2.1252908E2,2.581434E2,1.156154E2,1.9940857E1,2.3820255E2,1.0459326E2,1.1022137E1,1.3358315E2,1.046194E2,6.046378E1,4.4129482E1,8.529751E0,2.4923856E0,3.327368E1,1.0030946E2,2.4575647E1,8.0043755E1,5.0423042E1,1.0040737E1,1.1719109E1,3.2410374E1,5.226681E0,3.3030698E0,1.146202E0,1.3461835E0,7.849931E1,2.181015E1,2.167354E1,2.902108E0,1.0472416E0,7.899651E1,6.1704745E0,4.4252567E1,4.6455655E0,5.3951716E0,2.4314804E0,9.287628E0,1.7942775E0,3.0616098E1,1.6675203E0,1.6355495E0],"tree_param":{"num_deleted":"0","num_feature":"9","num_nodes":"43","size_leaf_vector":"1"}},{"base_weights":[-1.457989E-1,3.4662226E-1,-8.400031E-2,5.627253E-1,-4.0679428E-1,-8.143538E-2,6.965101E-1,-4.6336043E-1,9.5348096E-1,4.816149E-1,9.7850215E-1,2.1963704E-1,-5.616456E-1,2.5656063E-2,9.279837E-2,1.119964E0,2.454326E-1,1.0200628E0,8.538424E-2,7.5442165E-2,-5.1213972E-2,-7.315421E-1,-1.339208E-1,9.6363656E-2,4.974892E-2,6.160061E-2,9.097561E-3,8.568584E-2,2.4950955E-2,5.5335812E-2,-2.0730326E-2,-2.6726605E-2,3.0033361E-2,-1.0638611E-2,-6.254887E-2,7.265963E-2,-2.9247524E-2],"categories":[],"categories_nodes":[],"categories_segments":[],"categories_sizes":[],"default_left":[0,0,0,0,0,0,0,0,0,0,0,0,0,0,0,0,0,0,0,0,0,0,0,0,0,0,0,0,0,0,0,0,0,0,0,0,0],"id":17,"left_children":[1,3,-1,5,7,-1,9,11,13,15,17,19,21,-1,-1,23,25,27,29,-1,31,33,35,-1,-1,-1,-1,-1,-1,-1,-1,-1,-1,-1,-1,-1,-1],"loss_changes":[2.502592E2,5.9512543E1,0E0,6.0633995E1,6.7313824E0,0E0,1.5396858E1,5.43659E0,9.715295E-2,2.2427101E1,4.0805206E0,2.1400442E0,4.950651E0,0E0,0E0,9.5238113E-1,7.5950418E0,3.5382767E0,1.4500494E0,0E0,1.177283E0,1.3868885E0,5.3962393E0,0E0,0E0,0E0,0E0,0E0,0E0,0E0,0E0,0E0,0E0,0E0,0E0,0E0,0E0],"parents":[2147483647,0,0,1,1,3,3,4,4,6,6,7,7,8,8,9,9,10,10,11,11,12,12,15,15,16,16,17,17,18,18,20,20,21,21,22,22],"right_children":[2,4,-1,6,8,-1,10,12,14,16,18,20,22,-1,-1,24,26,28,30,-1,32,34,36,-1,-1,-1,-1,-1,-1,-1,-1,-1,-1,-1,-1,-1,-1],"split_conditions":[-8.451438E-1,1.1007515E0,-8.400031E-2,-8.779991E-1,4.0744907E-1,-8.143538E-2,-3.4601077E-2,-1.5876488E-1,1.2588685E0,-3.4617897E-2,1.4108685E-1,-3.4617815E-2,-1.010172E-1,2.5656063E-2,9.279837E-2,-3.461799E-2,-1.5891548E-1,8.174694E-1,-3.4550074E-2,7.5442165E-2,-1.5889676E-1,1.1951789E0,-3.461165E-2,9.6363656E-2,4.974892E-2,6.160061E-2,9.097561E-3,8.568584E-2,2.4950955E-2,5.5335812E-2,-2.0730326E-2,-2.6726605E-2,3.0033361E-2,-1.0638611E-2,-6.254887E-2,7.265963E-2,-2.9247524E-2],"split_indices":[8,5,0,8,7,0,0,7,7,0,1,0,7,0,0,0,7,5,0,0,7,5,0,0,0,0,0,0,0,0,0,0,0,0,0,0,0],"split_type":[0,0,0,0,0,0,0,0,0,0,0,0,0,0,0,0,0,0,0,0,0,0,0,0,0,0,0,0,0,0,0,0,0,0,0,0,0],"sum_hessian":[5.6024744E2,3.6311514E2,1.9713228E2,2.8237454E2,8.0740616E1,2.1518967E1,2.6085556E2,7.8150154E1,2.5904603E0,1.4957683E2,1.1127874E2,9.675946E0,6.8474205E1,1.2655221E0,1.324938E0,3.9385227E1,1.101916E2,1.061949E2,5.083837E0,1.9598505E0,7.716096E0,4.849944E1,1.9974766E1,3.245572E1,6.9295077E0,2.1142206E1,8.9049385E1,9.858158E1,7.613323E0,1.4768887E0,3.6069486E0,4.770227E0,2.945869E0,4.0434937E0,4.4455948E1,3.1016836E0,1.6873081E1],"tree_param":{"num_deleted":"0","num_feature":"9","num_nodes":"37","size_leaf_vector":"1"}},{"base_weights":[-1.4044183E-1,3.2952645E-1,-8.361237E-2,5.8668345E-1,-2.3979318E-1,-7.961235E-2,7.1132076E-1,-3.4064895E-1,6.043156E-1,4.977192E-1,9.9296E-1,-1.2643392E-1,-6.4354336E-1,9.20756E-2,3.4925517E-2,9.380754E-2,2.8795856E-1,5.980639E-1,1.1094744E0,-2.6252538E-1,2.2365594E-1,-1.1822112E-1,-8.350269E-1,-3.5631952E-1,8.7803274E-2,8.240359E-2,1.5687224E-2,6.435025E-2,-5.5673964E-2,-2.463846E-2,9.072768E-2,2.6725633E-2,-3.6158547E-2,5.5298302E-2,-1.4801662E-2,-2.6920859E-2,5.9252266E-2,-6.867655E-2,-1.474258E-2,-4.5340896E-2,4.06745E-3],"categories":[],"categories_nodes":[],"categories_segments":[],"categories_sizes":[],"default_left":[0,0,0,0,0,0,0,0,0,0,0,0,0,0,0,0,0,0,0,0,0,0,0,0,0,0,0,0,0,0,0,0,0,0,0,0,0,0,0,0,0],"id":18,"left_children":[1,3,-1,5,7,-1,9,11,13,15,17,19,21,-1,23,-1,25,27,29,31,33,35,37,39,-1,-1,-1,-1,-1,-1,-1,-1,-1,-1,-1,-1,-1,-1,-1,-1,-1],"loss_changes":[2.28625E2,5.198325E1,0E0,4.88565E1,9.64621E0,0E0,1.31594925E1,6.3871956E0,3.755641E0,1.82178E1,3.794281E0,2.9001925E0,4.0309277E0,0E0,3.3032537E0,0E0,6.7055397E0,7.031863E0,2.919403E0,5.0570445E0,3.4211094E0,2.5237606E0,2.9802322E-1,5.321783E-1,0E0,0E0,0E0,0E0,0E0,0E0,0E0,0E0,0E0,0E0,0E0,0E0,0E0,0E0,0E0,0E0,0E0],"parents":[2147483647,0,0,1,1,3,3,4,4,6,6,7,7,8,8,9,9,10,10,11,11,12,12,14,14,16,16,17,17,18,18,19,19,20,20,21,21,22,22,23,23],"right_children":[2,4,-1,6,8,-1,10,12,14,16,18,20,22,-1,24,-1,26,28,30,32,34,36,38,40,-1,-1,-1,-1,-1,-1,-1,-1,-1,-1,-1,-1,-1,-1,-1,-1,-1],"split_conditions":[-8.451438E-1,7.6247936E-1,-8.361237E-2,-8.779991E-1,6.7801E-2,-7.961235E-2,-3.4602012E-2,1.5029011E0,1.5029011E0,-3.461799E-2,-1.5460025E-1,-3.45646E-2,-3.4607723E-2,9.20756E-2,1.2588685E0,9.380754E-2,-7.955115E-1,-2.928627E-2,7.871415E-2,-1.5885249E-1,-3.3725165E-2,-1.2645401E-1,2.1618485E-2,-2.7323823E-2,8.7803274E-2,8.240359E-2,1.5687224E-2,6.435025E-2,-5.5673964E-2,-2.463846E-2,9.072768E-2,2.6725633E-2,-3.6158547E-2,5.5298302E-2,-1.4801662E-2,-2.6920859E-2,5.9252266E-2,-6.867655E-2,-1.474258E-2,-4.5340896E-2,4.06745E-3],"split_indices":[8,5,0,8,7,0,0,5,5,0,7,0,0,0,7,0,3,0,5,7,0,7,7,0,0,0,0,0,0,0,0,0,0,0,0,0,0,0,0,0,0],"split_type":[0,0,0,0,0,0,0,0,0,0,0,0,0,0,0,0,0,0,0,0,0,0,0,0,0,0,0,0,0,0,0,0,0,0,0,0,0,0,0,0,0],"sum_hessian":[5.3589545E2,3.5310492E2,1.8279054E2,2.4321582E2,1.098891E2,1.7253838E1,2.2596199E2,9.869345E1,1.1195647E1,1.3007635E2,9.5885635E1,5.863947E1,4.0053986E1,5.1908913E0,6.0047565E0,2.9754694E1,1.00321655E2,2.324286E1,7.264278E1,4.2405266E1,1.6234203E1,1.1131865E1,2.892212E1,4.8746376E0,1.1301187E0,9.926439E0,9.039522E1,2.0372957E1,2.8699036E0,1.0437857E0,7.159899E1,1.0036657E1,3.236861E1,7.2490635E0,8.98514E0,9.360912E0,1.7709529E0,2.7608871E1,1.313247E0,2.9552445E0,1.9193932E0],"tree_param":{"num_deleted":"0","num_feature":"9","num_nodes":"41","size_leaf_vector":"1"}},{"base_weights":[-1.3538845E-1,3.1305298E-1,-8.3252005E-2,5.072222E-1,-3.6800066E-1,-8.024481E-2,6.247043E-1,-4.227091E-1,8.8734454E-1,4.234018E-1,9.0410393E-1,2.1186045E-1,-5.2027315E-1,2.4223544E-2,8.5783646E-2,9.200425E-2,2.3473468E-1,9.480891E-1,3.5226695E-2,7.1744025E-2,-4.5208167E-2,-6.93153E-1,-1.04406185E-1,7.2049715E-2,1.2057638E-2,8.013589E-2,2.1713125E-2,-2.4959708E-2,4.8464593E-2,-3.0156825E-2,2.4158336E-2,-3.1136021E-2,-6.530947E-2,2.2989683E-2,-5.7943158E-2],"categories":[],"categories_nodes":[],"categories_segments":[],"categories_sizes":[],"default_left":[0,0,0,0,0,0,0,0,0,0,0,0,0,0,0,0,0,0,0,0,0,0,0,0,0,0,0,0,0,0,0,0,0,0,0],"id":19,"left_children":[1,3,-1,5,7,-1,9,11,13,15,17,19,21,-1,-1,-1,23,25,27,-1,29,31,33,-1,-1,-1,-1,-1,-1,-1,-1,-1,-1,-1,-1],"loss_changes":[2.0891129E2,4.5726036E1,0E0,4.824768E1,5.661812E0,0E0,1.3657753E1,4.7189636E0,5.7745695E-2,1.988001E1,3.9282074E0,1.9123495E0,4.587183E0,0E0,0E0,0E0,6.4622326E0,3.3059006E0,1.384316E0,0E0,1.1137835E0,1.3901443E0,5.115853E0,0E0,0E0,0E0,0E0,0E0,0E0,0E0,0E0,0E0,0E0,0E0,0E0],"parents":[2147483647,0,0,1,1,3,3,4,4,6,6,7,7,8,8,9,9,10,10,11,11,12,12,16,16,17,17,18,18,20,20,21,21,22,22],"right_children":[2,4,-1,6,8,-1,10,12,14,16,18,20,22,-1,-1,-1,24,26,28,-1,30,32,34,-1,-1,-1,-1,-1,-1,-1,-1,-1,-1,-1,-1],"split_conditions":[-8.451438E-1,1.1007515E0,-8.3252005E-2,-8.779991E-1,4.0744907E-1,-8.024481E-2,-3.4601077E-2,-1.5876488E-1,1.2588685E0,-3.461799E-2,1.4108685E-1,-3.4617815E-2,-1.010172E-1,2.4223544E-2,8.5783646E-2,9.200425E-2,-7.955115E-1,8.174694E-1,5.380755E-1,7.1744025E-2,-1.5891548E-1,1.3884773E0,-3.282559E-2,7.2049715E-2,1.2057638E-2,8.013589E-2,2.1713125E-2,-2.4959708E-2,4.8464593E-2,-3.0156825E-2,2.4158336E-2,-3.1136021E-2,-6.530947E-2,2.2989683E-2,-5.7943158E-2],"split_indices":[8,5,0,8,7,0,0,7,7,0,1,0,7,0,0,0,3,5,5,0,7,5,0,0,0,0,0,0,0,0,0,0,0,0,0],"split_type":[0,0,0,0,0,0,0,0,0,0,0,0,0,0,0,0,0,0,0,0,0,0,0,0,0,0,0,0,0,0,0,0,0,0,0],"sum_hessian":[5.1281195E2,3.4337015E2,1.6944182E2,2.6739172E2,7.597844E1,1.8754665E1,2.4863705E2,7.3441124E1,2.5373204E0,1.4597794E2,1.0265912E2,9.630642E0,6.381048E1,1.2436956E0,1.2936248E0,2.903891E1,1.1693902E2,9.762584E1,5.0332813E0,1.9490315E0,7.6816106E0,4.4602165E1,1.9208313E1,1.2012161E1,1.0492686E2,9.001416E1,7.6116796E0,3.4108355E0,1.622446E0,3.8842711E0,3.7973394E0,1.4064929E1,3.0537237E1,1.20983515E1,7.109961E0],"tree_param":{"num_deleted":"0","num_feature":"9","num_nodes":"35","size_leaf_vector":"1"}},{"base_weights":[-1.304513E-1,2.9690903E-1,-8.2916275E-2,5.3140587E-1,-2.1526395E-1,-7.8352496E-2,6.406523E-1,-3.3156243E-1,4.3498635E-1,-7.47199E-2,6.7519087E-1,-1.4022775E-1,-6.727009E-1,8.3215654E-1,-1.9116892E-1,4.664721E-1,1.001889E0,-2.3628883E-1,4.147036E-1,-7.1786426E-2,-6.617594E-2,3.2322875E-1,9.3827105E-1,4.4077806E-2,-5.6079274E-1,7.657475E-2,1.7433792E-2,6.1011473E-3,8.4354654E-2,3.699795E-2,-2.8083645E-2,6.1762077E-3,8.080373E-2,-3.085899E-2,3.8792245E-2,8.797952E-2,-4.127529E-2,8.863508E-2,2.4871426E-2,-6.4396E-2,-4.4595654E-4],"categories":[],"categories_nodes":[],"categories_segments":[],"categories_sizes":[],"default_left":[0,0,0,0,0,0,0,0,0,0,0,0,0,0,0,0,0,0,0,0,0,0,0,0,0,0,0,0,0,0,0,0,0,0,0,0,0,0,0,0,0],"id":20,"left_children":[1,3,-1,5,7,-1,9,11,13,-1,15,17,19,21,23,25,27,29,31,33,-1,35,37,-1,39,-1,-1,-1,-1,-1,-1,-1,-1,-1,-1,-1,-1,-1,-1,-1,-1],"loss_changes":[1.9093886E2,4.0387295E1,0E0,3.8638443E1,8.161882E0,0E0,1.2343971E1,5.812976E0,4.2668896E0,0E0,1.3942909E1,3.2562356E0,2.9354086E0,2.5263357E-1,2.2906244E0,1.574708E1,3.8839722E0,4.2632065E0,1.751553E0,1.5314673E0,0E0,2.7187796E0,5.0628614E-1,0E0,7.164053E-1,0E0,0E0,0E0,0E0,0E0,0E0,0E0,0E0,0E0,0E0,0E0,0E0,0E0,0E0,0E0,0E0],"parents":[2147483647,0,0,1,1,3,3,4,4,6,6,7,7,8,8,10,10,11,11,12,12,13,13,14,14,15,15,16,16,17,17,18,18,19,19,21,21,22,22,24,24],"right_children":[2,4,-1,6,8,-1,10,12,14,-1,16,18,20,22,24,26,28,30,32,34,-1,36,38,-1,40,-1,-1,-1,-1,-1,-1,-1,-1,-1,-1,-1,-1,-1,-1,-1,-1],"split_conditions":[-8.451438E-1,7.6247936E-1,-8.2916275E-2,-8.779991E-1,-2.6950859E-2,-7.8352496E-2,-1.4402336E-1,1.560113E0,1.6095484E0,-7.47199E-2,-1.5018463E-1,-1.0651378E-1,-3.4613125E-2,6.7801E-2,-3.4399305E-2,-3.4617715E-2,-3.4616053E-2,-1.5893261E-1,-3.423546E-2,-3.4615096E-2,-6.617594E-2,6.106087E-3,1.5029011E0,4.4077806E-2,1.9206033E0,7.657475E-2,1.7433792E-2,6.1011473E-3,8.4354654E-2,3.699795E-2,-2.8083645E-2,6.1762077E-3,8.080373E-2,-3.085899E-2,3.8792245E-2,8.797952E-2,-4.127529E-2,8.863508E-2,2.4871426E-2,-6.4396E-2,-4.4595654E-4],"split_indices":[8,5,0,8,7,0,5,5,5,0,7,7,0,7,0,0,0,7,0,0,0,7,5,0,5,0,0,0,0,0,0,0,0,0,0,0,0,0,0,0,0],"split_type":[0,0,0,0,0,0,0,0,0,0,0,0,0,0,0,0,0,0,0,0,0,0,0,0,0,0,0,0,0,0,0,0,0,0,0,0,0,0,0,0,0],"sum_hessian":[4.9134595E2,3.343199E2,1.5702608E2,2.2929865E2,1.0502124E2,1.4925326E1,2.1437332E2,8.950347E1,1.5517764E1,4.0422163E0,2.1033112E2,5.824602E1,3.125745E1,9.293748E0,6.2240167E0,1.2982022E2,8.051088E1,5.0140656E1,8.105368E0,6.6923804E0,2.456507E1,2.3015397E0,6.992208E0,1.906154E0,4.3178625E0,4.2688705E1,8.713152E1,4.456482E0,7.60544E1,6.645518E0,4.3495136E1,5.8938255E0,2.2115424E0,4.4754753E0,2.216905E0,1.0341177E0,1.267422E0,4.900846E0,2.091362E0,2.6866279E0,1.6312349E0],"tree_param":{"num_deleted":"0","num_feature":"9","num_nodes":"41","size_leaf_vector":"1"}},{"base_weights":[-1.2574412E-1,2.8143373E-1,-8.260248E-2,5.0362116E-1,-2.01553E-1,-7.773448E-2,6.058121E-1,-3.1262562E-1,4.1658556E-1,4.0112326E-1,8.9993006E-1,-8.485642E-2,-5.851636E-1,7.99385E-1,-1.81659E-1,8.8410854E-2,2.1420516E-1,4.99515E-1,1.0291455E0,5.3726363E-1,-1.51935E-1,7.771921E-2,-6.55335E-1,3.107755E-1,9.0437084E-1,4.0975682E-2,-5.430841E-1,5.8797174E-3,5.632917E-2,5.673874E-2,-5.781939E-2,-2.649166E-2,8.449593E-2,1.0212964E-2,7.782786E-2,-4.081848E-2,8.196176E-3,-5.969826E-2,-1.770257E-2,8.335011E-2,-3.9826393E-2,8.611013E-2,2.3572214E-2,-6.309732E-2,-4.2391775E-4],"categories":[],"categories_nodes":[],"categories_segments":[],"categories_sizes":[],"default_left":[0,0,0,0,0,0,0,0,0,0,0,0,0,0,0,0,0,0,0,0,0,0,0,0,0,0,0,0,0,0,0,0,0,0,0,0,0,0,0,0,0,0,0,0,0],"id":21,"left_children":[1,3,-1,5,7,-1,9,11,13,15,17,19,21,23,25,-1,27,29,31,33,35,-1,37,39,41,-1,43,-1,-1,-1,-1,-1,-1,-1,-1,-1,-1,-1,-1,-1,-1,-1,-1,-1,-1],"loss_changes":[1.7457062E2,3.5142868E1,0E0,3.4349453E1,7.2431326E0,0E0,1.228418E1,5.437208E0,3.857139E0,1.6298512E1,3.9039078E0,2.1397643E0,5.01367E0,2.354703E-1,2.0685632E0,0E0,6.8784194E0,6.350688E0,2.690773E0,7.71562E-1,4.1810546E0,0E0,1.3711281E0,2.472176E0,4.9718428E-1,0E0,6.800306E-1,0E0,0E0,0E0,0E0,0E0,0E0,0E0,0E0,0E0,0E0,0E0,0E0,0E0,0E0,0E0,0E0,0E0,0E0],"parents":[2147483647,0,0,1,1,3,3,4,4,6,6,7,7,8,8,9,9,10,10,11,11,12,12,13,13,14,14,16,16,17,17,18,18,19,19,20,20,22,22,23,23,24,24,26,26],"right_children":[2,4,-1,6,8,-1,10,12,14,16,18,20,22,24,26,-1,28,30,32,34,36,-1,38,40,42,-1,44,-1,-1,-1,-1,-1,-1,-1,-1,-1,-1,-1,-1,-1,-1,-1,-1,-1,-1],"split_conditions":[-8.451438E-1,7.6247936E-1,-8.260248E-2,-8.779991E-1,-2.6950859E-2,-7.773448E-2,-3.4602012E-2,1.3884773E0,1.6095484E0,-3.461799E-2,-1.5460025E-1,-3.4617815E-2,-1.5895112E-1,6.7801E-2,-3.4399305E-2,8.8410854E-2,-1.4280838E-1,-2.928627E-2,7.871415E-2,7.893078E-1,-3.4614973E-2,7.771921E-2,-1.010172E-1,6.106087E-3,1.5029011E0,4.0975682E-2,1.9206033E0,5.8797174E-3,5.632917E-2,5.673874E-2,-5.781939E-2,-2.649166E-2,8.449593E-2,1.0212964E-2,7.782786E-2,-4.081848E-2,8.196176E-3,-5.969826E-2,-1.770257E-2,8.335011E-2,-3.9826393E-2,8.611013E-2,2.3572214E-2,-6.309732E-2,-4.2391775E-4],"split_indices":[8,5,0,8,7,0,0,5,5,0,7,0,7,7,0,0,7,0,5,3,0,0,7,7,5,0,5,0,0,0,0,0,0,0,0,0,0,0,0,0,0,0,0,0,0],"split_type":[0,0,0,0,0,0,0,0,0,0,0,0,0,0,0,0,0,0,0,0,0,0,0,0,0,0,0,0,0,0,0,0,0,0,0,0,0,0,0,0,0,0,0,0,0],"sum_hessian":[4.710177E2,3.2553235E2,1.4548535E2,2.229338E2,1.0259853E2,1.3890593E1,2.0904323E2,8.73898E1,1.5208729E1,1.2465471E2,8.438851E1,4.8319183E1,3.9070618E1,9.069317E0,6.139412E0,2.5122053E1,9.953265E1,2.1775612E1,6.26129E1,4.020607E0,4.4298576E1,1.1312354E0,3.7939384E1,2.30445E0,6.764867E0,1.959827E0,4.179585E0,7.821754E1,2.1315125E1,1.894474E1,2.830872E0,1.0017862E0,6.1611115E1,2.7385228E0,1.2820842E0,1.7975271E1,2.6323305E1,3.0775585E1,7.1637993E0,1.0587213E0,1.2457287E0,4.6794057E0,2.0854607E0,2.5488162E0,1.6307691E0],"tree_param":{"num_deleted":"0","num_feature":"9","num_nodes":"45","size_leaf_vector":"1"}},{"base_weights":[-1.2081342E-1,2.67368E-1,-8.2308136E-2,4.7219485E-1,-2.0201936E-1,-7.742592E-2,5.701547E-1,-3.5422897E-1,2.2792947E-1,3.6507586E-1,8.722962E-1,2.1753624E-1,-5.064937E-1,6.452415E-1,-3.4936884E-1,8.677712E-2,1.8786687E-1,9.260279E-1,-4.0370457E-2,5.178341E-1,-2.0938464E-1,-1.27111E-1,-6.873525E-1,4.4116488E-1,9.25263E-1,6.517949E-2,-5.404067E-1,-7.17974E-2,1.8859403E-2,4.522467E-2,8.3042935E-2,-3.440147E-2,5.2039042E-2,1.0458918E-2,9.718765E-2,-6.646154E-2,1.9274637E-2,-2.0563764E-2,5.1435325E-2,-7.739639E-2,-4.6678223E-2,4.5176532E-2,-3.0554919E-2,2.3807399E-2,9.097614E-2,-1.1287078E-2,-5.542492E-2],"categories":[],"categories_nodes":[],"categories_segments":[],"categories_sizes":[],"default_left":[0,0,0,0,0,0,0,0,0,0,0,0,0,0,0,0,0,0,0,0,0,0,0,0,0,0,0,0,0,0,0,0,0,0,0,0,0,0,0,0,0,0,0,0,0,0,0],"id":22,"left_children":[1,3,-1,5,7,-1,9,11,13,15,17,19,21,23,25,-1,27,29,31,33,35,37,39,41,43,-1,45,-1,-1,-1,-1,-1,-1,-1,-1,-1,-1,-1,-1,-1,-1,-1,-1,-1,-1,-1,-1],"loss_changes":[1.5982906E2,3.0658552E1,0E0,3.1813873E1,6.4467297E0,0E0,1.257785E1,6.3988695E0,6.499317E0,1.5826107E1,4.128765E0,2.1456466E0,3.847252E0,4.756689E-1,3.0145192E0,0E0,5.515305E0,2.598381E0,1.7863828E0,2.4358487E0,2.2355492E0,2.1402774E0,5.587425E-1,1.3197951E0,4.0771198E-1,0E0,5.439842E-1,0E0,0E0,0E0,0E0,0E0,0E0,0E0,0E0,0E0,0E0,0E0,0E0,0E0,0E0,0E0,0E0,0E0,0E0,0E0,0E0],"parents":[2147483647,0,0,1,1,3,3,4,4,6,6,7,7,8,8,9,9,10,10,11,11,12,12,13,13,14,14,16,16,17,17,18,18,19,19,20,20,21,21,22,22,23,23,24,24,26,26],"right_children":[2,4,-1,6,8,-1,10,12,14,16,18,20,22,24,26,-1,28,30,32,34,36,38,40,42,44,-1,46,-1,-1,-1,-1,-1,-1,-1,-1,-1,-1,-1,-1,-1,-1,-1,-1,-1,-1,-1,-1],"split_conditions":[-8.451438E-1,7.935849E-1,-8.2308136E-2,-8.779991E-1,-9.333359E-2,-7.742592E-2,-3.4602012E-2,-1.5876488E-1,1.6095484E0,-3.461799E-2,2.7872193E-1,-3.4617156E-2,1.1951789E0,-3.4186587E-2,-3.4611005E-2,8.677712E-2,-1.4402336E-1,-1.5460025E-1,5.380755E-1,4.5870626E-1,1.2262844E0,-1.2047E-1,-3.4614936E-2,-3.447754E-2,-6.543387E-2,6.517949E-2,-3.4110334E-2,-7.17974E-2,1.8859403E-2,4.522467E-2,8.3042935E-2,-3.440147E-2,5.2039042E-2,1.0458918E-2,9.718765E-2,-6.646154E-2,1.9274637E-2,-2.0563764E-2,5.1435325E-2,-7.739639E-2,-4.6678223E-2,4.5176532E-2,-3.0554919E-2,2.3807399E-2,9.097614E-2,-1.1287078E-2,-5.542492E-2],"split_indices":[8,5,0,8,7,0,0,7,5,0,1,0,5,0,0,0,5,7,5,1,5,7,0,0,7,0,0,0,0,0,0,0,0,0,0,0,0,0,0,0,0,0,0,0,0,0,0],"split_type":[0,0,0,0,0,0,0,0,0,0,0,0,0,0,0,0,0,0,0,0,0,0,0,0,0,0,0,0,0,0,0,0,0,0,0,0,0,0,0,0,0,0,0,0,0,0,0],"sum_hessian":[4.5165643E2,3.168923E2,1.3476416E2,2.2061598E2,9.627631E1,1.3486307E1,2.0712967E2,7.123423E1,2.5042084E1,1.2469863E2,8.243104E1,1.489053E1,5.6343697E1,1.4466782E1,1.0575303E1,2.3627453E1,1.0107118E2,7.783405E1,4.596985E0,8.616616E0,6.2739134E0,1.8738745E1,3.7604954E1,9.857912E0,4.6088696E0,1.0305699E0,9.544733E0,3.5203178E0,9.755086E1,1.9874874E1,5.7959183E1,3.1806438E0,1.416341E0,6.303451E0,2.3131652E0,2.2812326E0,3.9926808E0,1.6603348E1,2.1353967E0,7.9239697E0,2.9680983E1,8.844362E0,1.0135491E0,1.7702634E0,2.838606E0,3.168541E0,6.376192E0],"tree_param":{"num_deleted":"0","num_feature":"9","num_nodes":"47","size_leaf_vector":"1"}},{"base_weights":[-1.1630311E-1,2.535913E-1,-8.203103E-2,4.5455867E-1,-1.7746086E-1,-7.9135485E-2,5.45037E-1,-2.5867486E-1,5.3038293E-1,3.6693856E-1,8.797967E-1,-8.216436E-2,-5.4443794E-1,8.060382E-2,6.9403194E-2,1.0655488E0,2.1591274E-1,3.240876E-1,1.0674454E0,3.9129887E-2,-5.170702E-1,-9.6976105E-4,-7.651031E-1,-2.9787987E-1,7.85897E-2,8.822657E-2,3.7247255E-2,1.1355559E-2,8.257223E-2,4.4092707E-2,-5.6507304E-2,1.8575307E-2,8.660594E-2,-2.2189211E-2,1.6815396E-2,1.4873566E-2,-6.734345E-2,-1.8031718E-2,5.8437962E-2,-4.580622E-2,-7.655373E-2,-4.3837927E-2,1.3911402E-2],"categories":[],"categories_nodes":[],"categories_segments":[],"categories_sizes":[],"default_left":[0,0,0,0,0,0,0,0,0,0,0,0,0,0,0,0,0,0,0,0,0,0,0,0,0,0,0,0,0,0,0,0,0,0,0,0,0,0,0,0,0,0,0],"id":23,"left_children":[1,3,-1,5,7,-1,9,11,13,15,17,19,21,-1,23,25,27,29,31,33,35,37,39,41,-1,-1,-1,-1,-1,-1,-1,-1,-1,-1,-1,-1,-1,-1,-1,-1,-1,-1,-1],"loss_changes":[1.4630826E2,2.6893139E1,0E0,2.815097E1,5.8363056E0,0E0,1.1574749E1,4.475013E0,2.246638E0,1.3694126E1,6.8058357E0,3.0043585E0,4.081086E0,0E0,2.448931E0,5.5770874E-3,6.480838E0,4.7761736E0,3.9100647E-1,2.503423E0,2.9886963E0,1.942504E0,3.4602547E-1,7.268891E-1,0E0,0E0,0E0,0E0,0E0,0E0,0E0,0E0,0E0,0E0,0E0,0E0,0E0,0E0,0E0,0E0,0E0,0E0,0E0],"parents":[2147483647,0,0,1,1,3,3,4,4,6,6,7,7,8,8,9,9,10,10,11,11,12,12,14,14,15,15,16,16,17,17,18,18,19,19,20,20,21,21,22,22,23,23],"right_children":[2,4,-1,6,8,-1,10,12,14,16,18,20,22,-1,24,26,28,30,32,34,36,38,40,42,-1,-1,-1,-1,-1,-1,-1,-1,-1,-1,-1,-1,-1,-1,-1,-1,-1,-1,-1],"split_conditions":[-8.451438E-1,7.6247936E-1,-8.203103E-2,-9.7365126E-2,8.854896E-2,-7.9135485E-2,-3.457836E-2,1.5029011E0,1.5029011E0,-3.461799E-2,-1.5460025E-1,-5.5534694E-2,-3.4607723E-2,8.060382E-2,1.2588685E0,2.6185184E0,-8.255943E-2,-2.928627E-2,7.314456E-1,-3.4614973E-2,-3.4617156E-2,-1.2645401E-1,-3.0241827E-2,-2.7323823E-2,7.85897E-2,8.822657E-2,3.7247255E-2,1.1355559E-2,8.257223E-2,4.4092707E-2,-5.6507304E-2,1.8575307E-2,8.660594E-2,-2.2189211E-2,1.6815396E-2,1.4873566E-2,-6.734345E-2,-1.8031718E-2,5.8437962E-2,-4.580622E-2,-7.655373E-2,-4.3837927E-2,1.3911402E-2],"split_indices":[8,5,0,5,7,0,0,5,5,0,7,1,0,0,7,1,7,0,6,0,0,7,0,0,0,0,0,0,0,0,0,0,0,0,0,0,0,0,0,0,0,0,0],"split_type":[0,0,0,0,0,0,0,0,0,0,0,0,0,0,0,0,0,0,0,0,0,0,0,0,0,0,0,0,0,0,0,0,0,0,0,0,0,0,0,0,0,0,0],"sum_hessian":[4.333243E2,3.0851483E2,1.2480949E2,2.1037715E2,9.8137665E1,1.182081E1,1.9855635E2,8.8606064E1,9.531598E0,1.3097261E2,6.758373E1,5.5569412E1,3.303665E1,4.1009727E0,5.430625E0,2.2204475E1,1.0876814E2,1.7748837E1,4.9834892E1,4.416259E1,1.140682E1,9.830317E0,2.3206337E1,4.3531113E0,1.0775139E0,2.0116207E1,2.0882688E0,1.00806854E2,7.961287E0,1.4924994E1,2.8238406E0,1.1774263E0,4.8657467E1,1.5276685E1,2.8885906E1,3.7392354E0,7.667585E0,8.051689E0,1.7786268E0,1.3570666E1,9.635671E0,2.7393925E0,1.6137185E0],"tree_param":{"num_deleted":"0","num_feature":"9","num_nodes":"43","size_leaf_vector":"1"}},{"base_weights":[-1.1153072E-1,2.4006087E-1,-8.1769034E-2,3.888326E-1,-2.836531E-1,-7.7840544E-2,4.7819853E-1,-3.341939E-1,7.7871394E-1,3.0253133E-1,7.5605994E-1,2.3403177E-1,-4.332703E-1,1.8690828E-2,7.7022366E-2,1.0500451E0,1.5237185E-1,8.0606085E-1,-6.331121E-2,6.5861665E-2,1.8332123E-3,-6.02798E-1,-6.4789265E-2,8.697684E-2,3.5899337E-2,6.2846184E-2,5.8487505E-3,6.646964E-2,-4.0791202E-2,4.2972177E-2,-2.9703356E-2,-2.810313E-2,2.9260883E-2,-7.714898E-2,-3.7521962E-2,2.203922E-2,-5.3732906E-2],"categories":[],"categories_nodes":[],"categories_segments":[],"categories_sizes":[],"default_left":[0,0,0,0,0,0,0,0,0,0,0,0,0,0,0,0,0,0,0,0,0,0,0,0,0,0,0,0,0,0,0,0,0,0,0,0,0],"id":24,"left_children":[1,3,-1,5,7,-1,9,11,13,15,17,19,21,-1,-1,23,25,27,29,-1,31,33,35,-1,-1,-1,-1,-1,-1,-1,-1,-1,-1,-1,-1,-1,-1],"loss_changes":[1.3400334E2,2.3657635E1,0E0,2.916079E1,3.8811765E0,0E0,1.0604195E1,3.764979E0,1.1245775E-1,1.5289512E1,3.5455627E0,1.4092715E0,3.4443893E0,0E0,0E0,2.2859573E-2,5.753767E0,3.0506477E0,1.2781223E0,0E0,1.2078159E0,1.3891516E0,4.0449953E0,0E0,0E0,0E0,0E0,0E0,0E0,0E0,0E0,0E0,0E0,0E0,0E0,0E0,0E0],"parents":[2147483647,0,0,1,1,3,3,4,4,6,6,7,7,8,8,9,9,10,10,11,11,12,12,15,15,16,16,17,17,18,18,20,20,21,21,22,22],"right_children":[2,4,-1,6,8,-1,10,12,14,16,18,20,22,-1,-1,24,26,28,30,-1,32,34,36,-1,-1,-1,-1,-1,-1,-1,-1,-1,-1,-1,-1,-1,-1],"split_conditions":[-8.451438E-1,1.1007515E0,-8.1769034E-2,-8.779991E-1,4.0744907E-1,-7.7840544E-2,-3.4601077E-2,-1.5876488E-1,1.2588685E0,-3.461799E-2,1.4108685E-1,-3.4617815E-2,-1.010172E-1,1.8690828E-2,7.7022366E-2,2.6185184E0,-7.955115E-1,2.6947388E-1,-3.4550074E-2,6.5861665E-2,-1.5891548E-1,-3.4614936E-2,-3.282559E-2,8.697684E-2,3.5899337E-2,6.2846184E-2,5.8487505E-3,6.646964E-2,-4.0791202E-2,4.2972177E-2,-2.9703356E-2,-2.810313E-2,2.9260883E-2,-7.714898E-2,-3.7521962E-2,2.203922E-2,-5.3732906E-2],"split_indices":[8,5,0,8,7,0,0,7,7,0,1,0,7,0,0,1,3,0,0,0,7,0,0,0,0,0,0,0,0,0,0,0,0,0,0,0,0],"split_type":[0,0,0,0,0,0,0,0,0,0,0,0,0,0,0,0,0,0,0,0,0,0,0,0,0,0,0,0,0,0,0,0,0,0,0,0,0],"sum_hessian":[4.1679382E2,3.012228E2,1.1557099E2,2.347849E2,6.643793E1,1.3849266E1,2.2093562E2,6.4075066E1,2.3628662E0,1.366394E2,8.429622E1,9.311182E0,5.476388E1,1.1693481E0,1.193518E0,2.185407E1,1.1478534E2,7.946333E1,4.832884E0,1.9124652E0,7.3987174E0,3.707214E1,1.7691742E1,1.9820889E1,2.033182E0,1.1778573E1,1.0300677E2,7.835472E1,1.1086093E0,1.3861762E0,3.4467077E0,3.7727315E0,3.6259856E0,8.335078E0,2.873706E1,1.168557E1,6.006172E0],"tree_param":{"num_deleted":"0","num_feature":"9","num_nodes":"37","size_leaf_vector":"1"}},{"base_weights":[-1.0701951E-1,2.2676523E-1,-8.1520244E-2,4.1119665E-1,-1.6199015E-1,-7.810133E-2,4.9321702E-1,-2.586706E-1,3.7035432E-1,2.8033337E-1,7.593896E-1,-9.7114E-2,-5.852552E-1,6.92254E-1,-1.3280854E-1,8.001782E-1,9.890585E-3,8.3319396E-1,-2.0341188E-1,4.1202188E-1,-1.7325707E-1,2.581563E-2,-7.6185846E-1,2.3741321E-1,8.088343E-1,3.699776E-2,-4.8254472E-1,7.003154E-2,-6.87375E-2,-1.4810047E-2,5.7579383E-2,3.377113E-2,7.973039E-2,-8.23097E-2,1.0921523E-2,4.9921792E-2,-2.326319E-2,-4.4671535E-2,3.4555858E-3,-2.5124898E-2,4.4802062E-2,-6.31737E-2,-2.1236727E-2,8.0862224E-2,-4.3021686E-2,7.972092E-2,1.8021863E-2,-5.9491396E-2,2.7053528E-3],"categories":[],"categories_nodes":[],"categories_segments":[],"categories_sizes":[],"default_left":[0,0,0,0,0,0,0,0,0,0,0,0,0,0,0,0,0,0,0,0,0,0,0,0,0,0,0,0,0,0,0,0,0,0,0,0,0,0,0,0,0,0,0,0,0,0,0,0,0],"id":25,"left_children":[1,3,-1,5,7,-1,9,11,13,15,17,19,21,23,25,27,29,31,33,35,37,39,41,43,45,-1,47,-1,-1,-1,-1,-1,-1,-1,-1,-1,-1,-1,-1,-1,-1,-1,-1,-1,-1,-1,-1,-1,-1],"loss_changes":[1.2272622E2,2.124684E1,0E0,2.3314083E1,5.0247555E0,0E0,1.0559078E1,4.250536E0,2.5426364E0,1.5064542E1,6.130829E0,2.235282E0,2.9140224E0,3.0579853E-1,1.6268568E0,5.3297596E0,1.0035925E1,4.8272247E0,2.042024E0,1.3075374E0,4.1306143E0,1.4433086E0,7.809162E-2,2.540436E0,5.4846334E-1,0E0,6.6372347E-1,0E0,0E0,0E0,0E0,0E0,0E0,0E0,0E0,0E0,0E0,0E0,0E0,0E0,0E0,0E0,0E0,0E0,0E0,0E0,0E0,0E0,0E0],"parents":[2147483647,0,0,1,1,3,3,4,4,6,6,7,7,8,8,9,9,10,10,11,11,12,12,13,13,14,14,15,15,16,16,17,17,18,18,19,19,20,20,21,21,22,22,23,23,24,24,26,26],"right_children":[2,4,-1,6,8,-1,10,12,14,16,18,20,22,24,26,28,30,32,34,36,38,40,42,44,46,-1,48,-1,-1,-1,-1,-1,-1,-1,-1,-1,-1,-1,-1,-1,-1,-1,-1,-1,-1,-1,-1,-1,-1],"split_conditions":[-8.451438E-1,7.6247936E-1,-8.1520244E-2,-9.7365126E-2,-2.6950859E-2,-7.810133E-2,-3.4611523E-2,1.560113E0,1.6095484E0,-3.4617715E-2,2.7872193E-1,-1.5893261E-1,-3.4613125E-2,6.7801E-2,-3.4399305E-2,-1.5640233E-1,-1.4189379E-1,-1.5436536E-1,7.314456E-1,-3.461692E-2,-3.4614973E-2,-3.4615096E-2,1.9206033E0,-2.9832337E-3,1.5029011E0,3.699776E-2,1.9206033E0,7.003154E-2,-6.87375E-2,-1.4810047E-2,5.7579383E-2,3.377113E-2,7.973039E-2,-8.23097E-2,1.0921523E-2,4.9921792E-2,-2.326319E-2,-4.4671535E-2,3.4555858E-3,-2.5124898E-2,4.4802062E-2,-6.31737E-2,-2.1236727E-2,8.0862224E-2,-4.3021686E-2,7.972092E-2,1.8021863E-2,-5.9491396E-2,2.7053528E-3],"split_indices":[8,5,0,5,7,0,0,5,5,0,1,7,0,7,0,7,7,7,6,0,0,0,5,7,5,0,5,0,0,0,0,0,0,0,0,0,0,0,0,0,0,0,0,0,0,0,0,0,0],"split_type":[0,0,0,0,0,0,0,0,0,0,0,0,0,0,0,0,0,0,0,0,0,0,0,0,0,0,0,0,0,0,0,0,0,0,0,0,0,0,0,0,0,0,0,0,0,0,0,0,0],"sum_hessian":[4.0140686E2,2.94406E2,1.07000854E2,1.9963733E2,9.476869E1,1.0534368E1,1.8910297E2,8.0637924E1,1.4130768E1,1.0620992E2,8.2893036E1,5.4817753E1,2.5820171E1,8.388439E0,5.742329E0,3.5675587E1,7.053434E1,7.711624E1,5.776795E0,6.55775E0,4.8260002E1,5.980538E0,1.9839634E1,2.330891E0,6.057548E0,2.0058527E0,3.7364767E0,3.45806E1,1.0949854E0,5.5912746E1,1.4621593E1,2.295797E1,5.415827E1,1.0938573E0,4.6829376E0,5.1241693E0,1.4335808E0,1.6795563E1,3.146444E1,3.9069488E0,2.073589E0,1.8227564E1,1.6120702E0,1.0146767E0,1.3162141E0,4.048033E0,2.0095148E0,2.1893005E0,1.5471761E0],"tree_param":{"num_deleted":"0","num_feature":"9","num_nodes":"49","size_leaf_vector":"1"}},{"base_weights":[-1.0300856E-1,2.1437001E-1,-8.1282854E-2,-7.694966E-2,2.7092293E-1,4.3468976E-1,-2.3646337E-1,2.9418117E-1,7.1765226E-1,-2.8484026E-1,7.529894E-1,1.0173358E0,1.6936548E-1,1.6027464E-1,9.102662E-1,-1.7611225E-1,-7.287018E-1,1.655538E-2,7.500695E-2,8.463622E-2,3.2040868E-2,2.3189692E-2,-1.4213142E-2,3.152033E-2,-6.1431058E-2,8.01037E-2,1.6102916E-2,5.074859E-2,-1.8142086E-2,-6.503564E-2,3.5017305E-3],"categories":[],"categories_nodes":[],"categories_segments":[],"categories_sizes":[],"default_left":[0,0,0,0,0,0,0,0,0,0,0,0,0,0,0,0,0,0,0,0,0,0,0,0,0,0,0,0,0,0,0],"id":26,"left_children":[1,3,-1,-1,5,7,9,11,13,15,17,19,21,23,25,27,29,-1,-1,-1,-1,-1,-1,-1,-1,-1,-1,-1,-1,-1,-1],"loss_changes":[1.1242198E2,1.9428764E1,0E0,0E0,2.301308E1,8.090225E0,3.465835E0,1.2573454E1,7.2171288E0,3.0319633E0,1.527915E-1,9.201813E-2,5.13772E0,4.3869452E0,3.0741692E0,2.3578286E0,8.5333586E-1,0E0,0E0,0E0,0E0,0E0,0E0,0E0,0E0,0E0,0E0,0E0,0E0,0E0,0E0],"parents":[2147483647,0,0,1,1,4,4,5,5,6,6,7,7,8,8,9,9,10,10,11,11,12,12,13,13,14,14,15,15,16,16],"right_children":[2,4,-1,-1,6,8,10,12,14,16,18,20,22,24,26,28,30,-1,-1,-1,-1,-1,-1,-1,-1,-1,-1,-1,-1,-1,-1],"split_conditions":[-8.451438E-1,-8.779991E-1,-8.1282854E-2,-7.694966E-2,1.0529824E0,-3.457836E-2,4.0744907E-1,-3.461799E-2,-1.5460025E-1,-2.4835616E-2,1.2588685E0,2.6185184E0,-2.6444507E-1,-2.928627E-2,7.935849E-1,-1.5895112E-1,8.854896E-2,1.655538E-2,7.500695E-2,8.463622E-2,3.2040868E-2,2.3189692E-2,-1.4213142E-2,3.152033E-2,-6.1431058E-2,8.01037E-2,1.6102916E-2,5.074859E-2,-1.8142086E-2,-6.503564E-2,3.5017305E-3],"split_indices":[8,8,0,0,5,0,7,0,7,0,7,1,1,0,5,7,7,0,0,0,0,0,0,0,0,0,0,0,0,0,0],"split_type":[0,0,0,0,0,0,0,0,0,0,0,0,0,0,0,0,0,0,0,0,0,0,0,0,0,0,0,0,0,0,0],"sum_hessian":[3.8621106E2,2.8715717E2,9.905387E1,1.2438627E1,2.7471854E2,2.077933E2,6.692525E1,1.4020993E2,6.758337E1,6.448456E1,2.4406915E0,1.9585447E1,1.2062448E2,1.7827385E1,4.975598E1,5.291846E1,1.1566095E1,1.1525234E0,1.2881682E0,1.7704475E1,1.8809712E0,8.965619E1,3.0968298E1,1.47009115E1,3.1264744E0,4.3729046E1,6.0269365E0,2.4355774E0,5.0482883E1,1.0381523E1,1.1845723E0],"tree_param":{"num_deleted":"0","num_feature":"9","num_nodes":"31","size_leaf_vector":"1"}},{"base_weights":[-9.846387E-2,2.0239805E-1,-8.10552E-2,-7.631886E-2,2.554254E-1,4.1618133E-1,-2.0167981E-1,2.6009566E-1,6.845988E-1,-2.4481708E-1,7.2682506E-1,9.9856055E-1,1.2700555E-1,2.9879352E-1,8.3104396E-1,-2.6155557E-2,-4.7299412E-1,1.586544E-2,7.266024E-2,8.324129E-2,3.0865798E-2,3.5370543E-4,4.3941684E-2,6.7225456E-2,-1.6599791E-2,1.9318499E-2,7.2978765E-2,-1.8586323E-2,3.3348463E-2,6.762914E-3,-5.240143E-2],"categories":[],"categories_nodes":[],"categories_segments":[],"categories_sizes":[],"default_left":[0,0,0,0,0,0,0,0,0,0,0,0,0,0,0,0,0,0,0,0,0,0,0,0,0,0,0,0,0,0,0],"id":27,"left_children":[1,3,-1,-1,5,7,9,11,13,15,17,19,21,23,25,27,29,-1,-1,-1,-1,-1,-1,-1,-1,-1,-1,-1,-1,-1,-1],"loss_changes":[1.0308186E2,1.7543854E1,0E0,0E0,1.9964466E1,8.221401E0,3.0243247E0,1.2490679E1,3.8819618E0,3.413229E0,1.4655948E-1,9.877968E-2,5.687457E0,6.1170273E0,2.2892723E0,3.3958268E0,3.4590921E0,0E0,0E0,0E0,0E0,0E0,0E0,0E0,0E0,0E0,0E0,0E0,0E0,0E0,0E0],"parents":[2147483647,0,0,1,1,4,4,5,5,6,6,7,7,8,8,9,9,10,10,11,11,12,12,13,13,14,14,15,15,16,16],"right_children":[2,4,-1,-1,6,8,10,12,14,16,18,20,22,24,26,28,30,-1,-1,-1,-1,-1,-1,-1,-1,-1,-1,-1,-1,-1,-1],"split_conditions":[-8.451438E-1,-8.779991E-1,-8.10552E-2,-7.631886E-2,9.9299324E-1,-3.460149E-2,4.0744907E-1,-3.461799E-2,-1.5460025E-1,1.5029011E0,1.2588685E0,2.6185184E0,-1.4280838E-1,-3.4441274E-2,-3.4571726E-2,-3.45646E-2,-3.461165E-2,1.586544E-2,7.266024E-2,8.324129E-2,3.0865798E-2,3.5370543E-4,4.3941684E-2,6.7225456E-2,-1.6599791E-2,1.9318499E-2,7.2978765E-2,-1.8586323E-2,3.3348463E-2,6.762914E-3,-5.240143E-2],"split_indices":[8,8,0,0,5,0,7,0,7,5,7,1,7,0,0,0,0,0,0,0,0,0,0,0,0,0,0,0,0,0,0],"split_type":[0,0,0,0,0,0,0,0,0,0,0,0,0,0,0,0,0,0,0,0,0,0,0,0,0,0,0,0,0,0,0],"sum_hessian":[3.7281705E2,2.8112964E2,9.1687416E1,1.1581342E1,2.695483E2,1.9948311E2,7.006519E1,1.2738013E2,7.210298E1,6.76582E1,2.4069903E0,1.845846E1,1.0892167E2,2.067518E1,5.14278E1,3.511868E1,3.253952E1,1.1500226E0,1.2569677E0,1.6622158E1,1.8363012E0,8.519881E1,2.3722858E1,9.671194E0,1.1003986E1,6.7060814E0,4.4721718E1,2.4289934E1,1.0828747E1,8.140652E0,2.4398869E1],"tree_param":{"num_deleted":"0","num_feature":"9","num_nodes":"31","size_leaf_vector":"1"}},{"base_weights":[-9.371594E-2,1.9124928E-1,-8.083569E-2,-7.5682096E-2,2.4096337E-1,4.5168185E-1,-8.350786E-2,-7.102518E-2,4.8706314E-1,-2.6306692E-1,3.1939057E-1,3.1639567E-1,8.3079726E-1,4.8460922E-1,-3.2585025E-1,6.053092E-1,-2.6234517E-1,6.28576E-2,8.87671E-3,-8.044224E-3,7.278575E-2,-8.846261E-3,1.1886499E-1,-1.2741157E-2,-5.0053775E-2,2.6070928E-2,6.493713E-2,5.6774184E-2,-3.4444135E-2],"categories":[],"categories_nodes":[],"categories_segments":[],"categories_sizes":[],"default_left":[0,0,0,0,0,0,0,0,0,0,0,0,0,0,0,0,0,0,0,0,0,0,0,0,0,0,0,0,0],"id":28,"left_children":[1,3,-1,-1,5,7,9,-1,11,13,15,17,19,21,23,25,27,-1,-1,-1,-1,-1,-1,-1,-1,-1,-1,-1,-1],"loss_changes":[9.46054E1,1.5863367E1,0E0,0E0,1.8208185E1,8.075905E0,7.7148867E0,0E0,8.992809E0,3.6086488E0,5.642489E0,1.0233512E1,3.8988647E0,3.797349E0,3.3173923E0,1.0277796E0,2.1959298E0,0E0,0E0,0E0,0E0,0E0,0E0,0E0,0E0,0E0,0E0,0E0,0E0],"parents":[2147483647,0,0,1,1,4,4,5,5,6,6,8,8,9,9,10,10,11,11,12,12,13,13,14,14,15,15,16,16],"right_children":[2,4,-1,-1,6,8,10,-1,12,14,16,18,20,22,24,26,28,-1,-1,-1,-1,-1,-1,-1,-1,-1,-1,-1,-1],"split_conditions":[-8.451438E-1,-8.779991E-1,-8.083569E-2,-7.5682096E-2,6.8249387E-1,-1.4402336E-1,-1.0651378E-1,-7.102518E-2,-1.5018463E-1,-7.955115E-1,1.6095484E0,-3.4617715E-2,-3.461616E-2,9.560314E-1,1.3884773E0,-3.459002E-2,-3.4611344E-2,6.28576E-2,8.87671E-3,-8.044224E-3,7.278575E-2,-8.846261E-3,1.1886499E-1,-1.2741157E-2,-5.0053775E-2,2.6070928E-2,6.493713E-2,5.6774184E-2,-3.4444135E-2],"split_indices":[8,8,0,0,5,5,7,0,7,3,5,0,0,1,5,0,0,0,0,0,0,0,0,0,0,0,0,0,0],"split_type":[0,0,0,0,0,0,0,0,0,0,0,0,0,0,0,0,0,0,0,0,0,0,0,0,0,0,0,0,0],"sum_hessian":[3.6040524E2,2.7554388E2,8.486133E1,1.0785355E1,2.6475854E2,1.6027835E2,1.044802E2,3.5046177E0,1.5677373E2,7.2511284E1,3.1968914E1,1.0604285E2,5.0730885E1,5.096708E0,6.741457E1,2.1407013E1,1.0561902E1,3.1425667E1,7.461718E1,3.9465199E0,4.6784363E1,3.7543848E0,1.342323E0,4.4320568E1,2.3094007E1,1.0190457E1,1.1216555E1,1.0832125E0,9.47869E0],"tree_param":{"num_deleted":"0","num_feature":"9","num_nodes":"29","size_leaf_vector":"1"}},{"base_weights":[-8.961803E-2,1.804912E-1,-8.0622844E-2,-7.5037204E-2,2.2719896E-1,4.4243512E-1,-5.652327E-2,-6.95744E-2,4.784729E-1,-2.2201496E-1,3.3730692E-1,3.5892376E-1,8.9510614E-1,5.0063765E-1,-2.7425858E-1,6.0253924E-1,-2.4479331E-1,5.338754E-2,1.1856443E-2,8.099612E-2,-3.48747E-2,5.1956315E-2,1.0679407E-2,-5.063533E-2,-6.9170017E-3,7.242077E-2,2.8379003E-2,5.9637666E-2,-3.3292513E-2],"categories":[],"categories_nodes":[],"categories_segments":[],"categories_sizes":[],"default_left":[0,0,0,0,0,0,0,0,0,0,0,0,0,0,0,0,0,0,0,0,0,0,0,0,0,0,0,0,0],"id":29,"left_children":[1,3,-1,-1,5,7,9,-1,11,13,15,17,19,21,23,25,27,-1,-1,-1,-1,-1,-1,-1,-1,-1,-1,-1,-1],"loss_changes":[8.679499E1,1.4354665E1,0E0,0E0,1.5942453E1,7.4299507E0,7.4609385E0,0E0,6.9013443E0,3.1726425E0,5.3856316E0,7.3324623E0,5.386738E0,2.2879755E-1,5.0392146E0,1.4489479E0,2.233063E0,0E0,0E0,0E0,0E0,0E0,0E0,0E0,0E0,0E0,0E0,0E0,0E0],"parents":[2147483647,0,0,1,1,4,4,5,5,6,6,8,8,9,9,10,10,11,11,12,12,13,13,14,14,15,15,16,16],"right_children":[2,4,-1,-1,6,8,10,-1,12,14,16,18,20,22,24,26,28,-1,-1,-1,-1,-1,-1,-1,-1,-1,-1,-1,-1],"split_conditions":[-8.451438E-1,-8.779991E-1,-8.0622844E-2,-7.5037204E-2,6.419456E-1,-1.4402336E-1,-1.0651378E-1,-6.95744E-2,-1.3756475E-1,-3.4617815E-2,1.6095484E0,-3.4617268E-2,2.7872193E-1,-2.6444507E-1,-3.461513E-2,8.924559E-1,-3.461239E-2,5.338754E-2,1.1856443E-2,8.099612E-2,-3.48747E-2,5.1956315E-2,1.0679407E-2,-5.063533E-2,-6.9170017E-3,7.242077E-2,2.8379003E-2,5.9637666E-2,-3.3292513E-2],"split_indices":[8,8,0,0,5,5,7,0,7,0,5,0,1,1,0,5,0,0,0,0,0,0,0,0,0,0,0,0,0],"split_type":[0,0,0,0,0,0,0,0,0,0,0,0,0,0,0,0,0,0,0,0,0,0,0,0,0,0,0,0,0],"sum_hessian":[3.4823862E2,2.6970068E2,7.8537926E1,1.0046533E1,2.5965417E2,1.473288E2,1.12325356E2,3.3199196E0,1.4400888E2,7.939781E1,3.2927547E1,1.13346596E2,3.0662292E1,4.7743626E0,7.462345E1,2.2596436E1,1.0331113E1,4.5127754E1,6.8218834E1,2.8398054E1,2.2642386E0,2.8501647E0,1.9241979E0,2.4829576E1,4.9793873E1,8.976891E0,1.3619545E1,1.0298175E0,9.301295E0],"tree_param":{"num_deleted":"0","num_feature":"9","num_nodes":"29","size_leaf_vector":"1"}},{"base_weights":[-8.5572645E-2,1.6958353E-1,-8.041523E-2,-7.43822E-2,2.1332389E-1,4.008702E-1,-7.2201334E-2,2.2608204E-1,6.7438775E-1,-2.3120536E-1,2.840946E-1,9.647437E-1,7.800745E-2,7.8366166E-1,-4.5899802E-1,4.7910428E-1,-2.9210922E-1,5.2990454E-1,-2.2777256E-1,8.1333846E-2,2.5418928E-2,1.1318221E-2,-8.0695055E-2,-3.9397433E-2,6.705728E-2,-9.196876E-2,1.0238155E-3,-7.855475E-3,1.1393201E-1,-1.0312678E-2,-4.7823574E-2,2.3091422E-2,6.1864734E-2,5.62795E-2,-3.1698413E-2],"categories":[],"categories_nodes":[],"categories_segments":[],"categories_sizes":[],"default_left":[0,0,0,0,0,0,0,0,0,0,0,0,0,0,0,0,0,0,0,0,0,0,0,0,0,0,0,0,0,0,0,0,0,0,0],"id":30,"left_children":[1,3,-1,-1,5,7,9,11,13,15,17,19,21,23,25,27,29,31,33,-1,-1,-1,-1,-1,-1,-1,-1,-1,-1,-1,-1,-1,-1,-1,-1],"loss_changes":[7.961608E1,1.2984269E1,0E0,0E0,1.376611E1,7.256998E0,5.8753138E0,1.04318075E1,7.7810326E0,3.2312179E0,4.1585364E0,2.1297836E-1,5.7370596E0,4.2433624E0,1.9370692E0,3.425183E0,3.2372575E0,1.0676022E0,2.0217865E0,0E0,0E0,0E0,0E0,0E0,0E0,0E0,0E0,0E0,0E0,0E0,0E0,0E0,0E0,0E0,0E0],"parents":[2147483647,0,0,1,1,4,4,5,5,6,6,7,7,8,8,9,9,10,10,11,11,12,12,13,13,14,14,15,15,16,16,17,17,18,18],"right_children":[2,4,-1,-1,6,8,10,12,14,16,18,20,22,24,26,28,30,32,34,-1,-1,-1,-1,-1,-1,-1,-1,-1,-1,-1,-1,-1,-1,-1,-1],"split_conditions":[-8.451438E-1,-8.779991E-1,-8.041523E-2,-7.43822E-2,6.8249387E-1,-3.4609582E-2,-1.0651378E-1,-3.461799E-2,1.4108685E-1,-7.955115E-1,1.6095484E0,2.6185184E0,3.0084844E0,-1.5876488E-1,7.893078E-1,9.560314E-1,1.3884773E0,-1.1134759E-2,-3.461239E-2,8.1333846E-2,2.5418928E-2,1.1318221E-2,-8.0695055E-2,-3.9397433E-2,6.705728E-2,-9.196876E-2,1.0238155E-3,-7.855475E-3,1.1393201E-1,-1.0312678E-2,-4.7823574E-2,2.3091422E-2,6.1864734E-2,5.62795E-2,-3.1698413E-2],"split_indices":[8,8,0,0,5,0,7,0,1,3,5,1,1,7,3,1,5,7,0,0,0,0,0,0,0,0,0,0,0,0,0,0,0,0,0],"split_type":[0,0,0,0,0,0,0,0,0,0,0,0,0,0,0,0,0,0,0,0,0,0,0,0,0,0,0,0,0,0,0,0,0,0,0],"sum_hessian":[3.375763E2,2.6489453E2,7.268176E1,9.360975E0,2.5553355E2,1.5398502E2,1.0154853E2,9.506282E1,5.8922195E1,7.045686E1,3.1091667E1,1.4953398E1,8.010943E1,5.4022274E1,4.8999205E0,5.0218196E0,6.543504E1,2.0980925E1,1.0110743E1,1.3313497E1,1.6399014E0,7.6510506E1,3.5989172E0,1.8856759E0,5.2136597E1,1.4056585E0,3.494262E0,3.6737452E0,1.3480743E0,4.358656E1,2.1848486E1,1.16346035E1,9.346321E0,1.0622624E0,9.04848E0],"tree_param":{"num_deleted":"0","num_feature":"9","num_nodes":"35","size_leaf_vector":"1"}},{"base_weights":[-8.183332E-2,1.5969524E-1,-8.02115E-2,-7.371533E-2,2.0080858E-1,3.9230648E-1,-4.8663262E-2,-6.83482E-2,4.266523E-1,-1.9602543E-1,3.0287325E-1,3.107702E-1,8.5228086E-1,-7.177123E-2,-4.8231253E-1,7.84308E-1,4.5647353E-2,7.604888E-2,1.6675996E-2,7.780117E-2,-3.1289626E-2,-3.5739496E-2,1.6901363E-2,7.238105E-2,-4.724646E-2,6.919357E-2,-8.0861396E-4,5.4090098E-2,-1.1731095E-2],"categories":[],"categories_nodes":[],"categories_segments":[],"categories_sizes":[],"default_left":[0,0,0,0,0,0,0,0,0,0,0,0,0,0,0,0,0,0,0,0,0,0,0,0,0,0,0,0,0],"id":31,"left_children":[1,3,-1,-1,5,7,9,-1,11,13,15,17,19,21,23,25,27,-1,-1,-1,-1,-1,-1,-1,-1,-1,-1,-1,-1],"loss_changes":[7.307105E1,1.1767342E1,0E0,0E0,1.2050769E1,6.4698734E0,5.771141E0,0E0,6.6124077E0,2.7506433E0,4.0459666E0,7.079957E0,4.7554073E0,6.0139184E0,4.066919E0,7.398262E-1,2.8322663E0,0E0,0E0,0E0,0E0,0E0,0E0,0E0,0E0,0E0,0E0,0E0,0E0],"parents":[2147483647,0,0,1,1,4,4,5,5,6,6,8,8,9,9,10,10,11,11,12,12,13,13,14,14,15,15,16,16],"right_children":[2,4,-1,-1,6,8,10,-1,12,14,16,18,20,22,24,26,28,-1,-1,-1,-1,-1,-1,-1,-1,-1,-1,-1,-1],"split_conditions":[-8.451438E-1,-8.779991E-1,-8.02115E-2,-7.371533E-2,6.419456E-1,-1.4402336E-1,-1.0651378E-1,-6.83482E-2,-1.3756475E-1,1.3884773E0,9.9299324E-1,-3.461799E-2,2.7872193E-1,-3.461513E-2,-1.5895112E-1,-4.7335547E-1,-3.461165E-2,7.604888E-2,1.6675996E-2,7.780117E-2,-3.1289626E-2,-3.5739496E-2,1.6901363E-2,7.238105E-2,-4.724646E-2,6.919357E-2,-8.0861396E-4,5.4090098E-2,-1.1731095E-2],"split_indices":[8,8,0,0,5,5,7,0,7,5,5,0,1,0,7,1,0,0,0,0,0,0,0,0,0,0,0,0,0],"split_type":[0,0,0,0,0,0,0,0,0,0,0,0,0,0,0,0,0,0,0,0,0,0,0,0,0,0,0,0,0],"sum_hessian":[3.2683405E2,2.5957428E2,6.725976E1,8.725006E0,2.5084926E2,1.4159021E2,1.0925906E2,3.1561384E0,1.3843407E2,7.729838E1,3.1960682E1,1.1016937E2,2.8264692E1,5.4775455E1,2.2522924E1,1.0416194E1,2.1544487E1,1.4045829E1,9.612354E1,2.5971203E1,2.293491E0,2.3312454E1,3.1463003E1,1.0980897E0,2.1424835E1,9.376031E0,1.0401627E0,4.4470344E0,1.7097452E1],"tree_param":{"num_deleted":"0","num_feature":"9","num_nodes":"29","size_leaf_vector":"1"}},{"base_weights":[-7.800275E-2,1.5024808E-1,-8.001034E-2,-7.3035E-2,1.8885213E-1,3.68943E-1,-4.4473667E-2,4.2369947E-1,-3.8618338E-1,-1.8322983E-1,2.8531873E-1,2.6070917E-1,6.9308734E-1,6.392814E-2,-7.0054007E-1,4.9182433E-1,-2.3426837E-1,5.0835496E-1,-2.0877571E-1,5.410613E-2,-7.5386753E-3,-6.2808715E-2,6.1169237E-2,1.4166475E-2,-7.058204E-2,5.14273E-2,9.836528E-3,-4.5874257E-2,-4.829459E-3,6.616315E-2,2.2095092E-2,5.8131296E-2,-3.02904E-2],"categories":[],"categories_nodes":[],"categories_segments":[],"categories_sizes":[],"default_left":[0,0,0,0,0,0,0,0,0,0,0,0,0,0,0,0,0,0,0,0,0,0,0,0,0,0,0,0,0,0,0,0,0],"id":32,"left_children":[1,3,-1,-1,5,7,9,11,13,15,17,19,21,-1,23,25,27,29,31,-1,-1,-1,-1,-1,-1,-1,-1,-1,-1,-1,-1,-1,-1],"loss_changes":[6.709717E1,1.0672625E1,0E0,0E0,1.04246235E1,5.948389E0,5.030746E0,5.5677795E0,4.279168E0,2.7745078E0,3.6996968E0,1.2333345E1,5.7547455E0,0E0,1.4995842E0,2.4115694E-1,4.2376633E0,1.4554296E0,1.9991409E0,0E0,0E0,0E0,0E0,0E0,0E0,0E0,0E0,0E0,0E0,0E0,0E0,0E0,0E0],"parents":[2147483647,0,0,1,1,4,4,5,5,6,6,7,7,8,8,9,9,10,10,11,11,12,12,14,14,15,15,16,16,17,17,18,18],"right_children":[2,4,-1,-1,6,8,10,12,14,16,18,20,22,-1,24,26,28,30,32,-1,-1,-1,-1,-1,-1,-1,-1,-1,-1,-1,-1,-1,-1],"split_conditions":[-8.451438E-1,-8.779991E-1,-8.001034E-2,-7.3035E-2,6.419456E-1,1.7722578E0,-1.0651378E-1,-3.4609582E-2,-1.5895112E-1,-3.4617815E-2,1.6095484E0,-3.4617268E-2,-1.5876488E-1,6.392814E-2,-3.4618013E-2,-2.6444507E-1,-3.461513E-2,8.924559E-1,-3.4612447E-2,5.410613E-2,-7.5386753E-3,-6.2808715E-2,6.1169237E-2,1.4166475E-2,-7.058204E-2,5.14273E-2,9.836528E-3,-4.5874257E-2,-4.829459E-3,6.616315E-2,2.2095092E-2,5.8131296E-2,-3.02904E-2],"split_indices":[8,8,0,0,5,2,7,0,7,0,5,0,7,0,0,1,0,5,0,0,0,0,0,0,0,0,0,0,0,0,0,0,0],"split_type":[0,0,0,0,0,0,0,0,0,0,0,0,0,0,0,0,0,0,0,0,0,0,0,0,0,0,0,0,0,0,0,0,0],"sum_hessian":[3.170736E2,2.5483278E2,6.224083E1,8.135169E0,2.4669762E2,1.3890417E2,1.0779344E2,1.2992204E2,8.982131E0,7.618425E1,3.1609192E1,8.2172325E1,4.7749718E1,1.5596044E0,7.4225264E0,4.7480807E0,7.1436165E1,2.1758469E1,9.850722E0,3.7433907E1,4.473842E1,1.7434511E0,4.6006264E1,1.2777481E0,6.1447783E0,2.8418612E0,1.9062192E0,2.3434359E1,4.800181E1,8.090596E0,1.3667873E1,1.0100693E0,8.840653E0],"tree_param":{"num_deleted":"0","num_feature":"9","num_nodes":"33","size_leaf_vector":"1"}},{"base_weights":[-7.421494E-2,1.4127527E-1,-7.98105E-2,-7.233983E-2,1.7751831E-1,9.2515445E-1,1.266359E-1,9.788863E-1,7.6700393E-3,1.9659899E-1,-3.3597583E-1,8.337059E-2,2.0222373E-2,3.1624876E-2,5.385513E-1,1.1488833E-1,-5.214317E-1,5.2417263E-2,-3.1012052E-3,5.1064186E-2,-3.3837404E-2,-2.867074E-2,3.8645845E-2,-4.8644353E-2,4.5485664E-2],"categories":[],"categories_nodes":[],"categories_segments":[],"categories_sizes":[],"default_left":[0,0,0,0,0,0,0,0,0,0,0,0,0,0,0,0,0,0,0,0,0,0,0,0,0],"id":33,"left_children":[1,3,-1,-1,5,7,9,11,-1,13,15,-1,-1,17,19,21,23,-1,-1,-1,-1,-1,-1,-1,-1],"loss_changes":[6.163504E1,9.688299E0,0E0,0E0,9.159314E0,5.914564E-1,7.4930654E0,3.9489937E-1,0E0,1.1263201E1,2.611368E0,0E0,0E0,5.992661E0,6.505415E0,1.8656062E0,2.4041886E0,0E0,0E0,0E0,0E0,0E0,0E0,0E0,0E0],"parents":[2147483647,0,0,1,1,4,4,5,5,6,6,7,7,9,9,10,10,13,13,14,14,15,15,16,16],"right_children":[2,4,-1,-1,6,8,10,12,-1,14,16,-1,-1,18,20,22,24,-1,-1,-1,-1,-1,-1,-1,-1],"split_conditions":[-8.451438E-1,-8.779991E-1,-7.98105E-2,-7.233983E-2,-3.461799E-2,9.15785E-1,1.5029011E0,2.6185184E0,7.6700393E-3,-3.457836E-2,-3.4607723E-2,8.337059E-2,2.0222373E-2,-7.955115E-1,-3.5239817E-3,-3.4614973E-2,7.522019E-1,5.2417263E-2,-3.1012052E-3,5.1064186E-2,-3.3837404E-2,-2.867074E-2,3.8645845E-2,-4.8644353E-2,4.5485664E-2],"split_indices":[8,8,0,0,0,5,5,1,0,0,0,0,0,3,0,0,7,0,0,0,0,0,0,0,0],"split_type":[0,0,0,0,0,0,0,0,0,0,0,0,0,0,0,0,0,0,0,0,0,0,0,0,0],"sum_hessian":[3.0803546E2,2.5043945E2,5.759602E1,7.5882196E0,2.4285123E2,1.4379857E1,2.2847137E2,1.3335403E1,1.0444536E0,1.989571E2,2.9514257E1,1.1866558E1,1.468845E0,1.3494545E2,6.401166E1,8.712847E0,2.080141E1,1.2844701E1,1.2210075E2,5.8299618E1,5.712038E0,3.8240056E0,4.8888407E0,1.967962E1,1.1217906E0],"tree_param":{"num_deleted":"0","num_feature":"9","num_nodes":"25","size_leaf_vector":"1"}},{"base_weights":[-7.043964E-2,1.3241424E-1,-7.961076E-2,8.857856E-1,8.440868E-2,9.510264E-1,3.909598E-3,1.8098886E-1,-2.9824808E-1,8.160582E-2,1.8232476E-2,2.99209E-1,-2.3127092E-1,6.294696E-1,-4.606504E-1,3.9182708E-2,5.554181E-1,-4.087766E-1,8.859126E-2,1.0044475E0,-4.1996174E-2,-7.271402E-2,-6.2224364E-1,3.3388976E-2,-1.4873612E-2,-1.347617E-2,5.333848E-2,-1.6477033E-2,-5.9961446E-2,2.1252064E-2,-2.6414892E-2,2.6005118E-3,1.0408777E-1,1.7506285E-2,-9.683262E-2,-6.389262E-2,-8.664744E-3],"categories":[],"categories_nodes":[],"categories_segments":[],"categories_sizes":[],"default_left":[0,0,0,0,0,0,0,0,0,0,0,0,0,0,0,0,0,0,0,0,0,0,0,0,0,0,0,0,0,0,0,0,0,0,0,0,0],"id":34,"left_children":[1,3,-1,5,7,9,-1,11,13,-1,-1,15,17,19,21,23,25,27,29,31,-1,33,35,-1,-1,-1,-1,-1,-1,-1,-1,-1,-1,-1,-1,-1,-1],"loss_changes":[5.662281E1,8.889416E0,0E0,7.58482E-1,8.706351E0,4.476652E-1,0E0,9.210386E0,7.455456E0,0E0,0E0,9.718058E0,2.4414577E0,3.777296E0,2.528201E0,6.346008E0,6.039749E0,1.7406807E0,1.2696952E0,1.6906333E0,0E0,4.644417E0,2.5289965E0,0E0,0E0,0E0,0E0,0E0,0E0,0E0,0E0,0E0,0E0,0E0,0E0,0E0,0E0],"parents":[2147483647,0,0,1,1,3,3,4,4,5,5,7,7,8,8,11,11,12,12,13,13,14,14,15,15,16,16,17,17,18,18,19,19,21,21,22,22],"right_children":[2,4,-1,6,8,10,-1,12,14,-1,-1,16,18,20,22,24,26,28,30,32,-1,34,36,-1,-1,-1,-1,-1,-1,-1,-1,-1,-1,-1,-1,-1,-1],"split_conditions":[-8.451438E-1,-3.461799E-2,-7.961076E-2,9.15785E-1,-2.6444507E-1,2.6185184E0,3.909598E-3,1.2262844E0,-7.955115E-1,8.160582E-2,1.8232476E-2,-1.5460025E-1,-1.00183725E-1,-3.4617074E-2,-1.5885249E-1,2.4201794E-1,-3.4615166E-2,-1.4126389E-1,1.7128631E0,1.1336476E0,-4.1996174E-2,3.0084844E0,-3.4601077E-2,3.3388976E-2,-1.4873612E-2,-1.347617E-2,5.333848E-2,-1.6477033E-2,-5.9961446E-2,2.1252064E-2,-2.6414892E-2,2.6005118E-3,1.0408777E-1,1.7506285E-2,-9.683262E-2,-6.389262E-2,-8.664744E-3],"split_indices":[8,0,0,5,1,1,0,5,3,0,0,7,7,0,7,5,0,7,5,1,0,1,0,0,0,0,0,0,0,0,0,0,0,0,0,0,0],"split_type":[0,0,0,0,0,0,0,0,0,0,0,0,0,0,0,0,0,0,0,0,0,0,0,0,0,0,0,0,0,0,0,0,0,0,0,0,0],"sum_hessian":[3.001604E2,2.4686212E2,5.3298294E1,1.3742563E1,2.3311955E2,1.2622263E1,1.1203004E0,1.8656E2,4.6559563E1,1.1147226E1,1.4750364E0,1.4519727E2,4.1362724E1,6.507829E0,4.0051735E1,7.2634026E1,7.256325E1,2.6422007E1,1.4940719E1,5.0103016E0,1.4975276E0,1.2203883E1,2.784785E1,2.6783258E1,4.5850765E1,9.602788E0,6.296046E1,1.7569105E1,8.852901E0,1.0757913E1,4.182806E0,1.4310844E0,3.5792172E0,1.0357382E1,1.8465012E0,2.0319077E1,7.5287733E0],"tree_param":{"num_deleted":"0","num_feature":"9","num_nodes":"37","size_leaf_vector":"1"}},{"base_weights":[-6.720361E-2,1.2377986E-1,-7.94099E-2,-7.13774E-2,1.5709455E-1,8.913436E-1,1.11145735E-1,9.4960105E-1,7.204844E-3,1.8018351E-1,-2.6209465E-1,8.148234E-2,1.8763572E-2,2.5872122E-2,4.6257466E-1,-4.8499876E-1,8.489227E-2,4.5278944E-2,-3.0778467E-3,4.357956E-2,-1.6769959E-2,1.2515591E-2,-4.8539624E-2,-2.3673952E-3,6.6045195E-2],"categories":[],"categories_nodes":[],"categories_segments":[],"categories_sizes":[],"default_left":[0,0,0,0,0,0,0,0,0,0,0,0,0,0,0,0,0,0,0,0,0,0,0,0,0],"id":35,"left_children":[1,3,-1,-1,5,7,9,11,-1,13,15,-1,-1,17,19,21,23,-1,-1,-1,-1,-1,-1,-1,-1],"loss_changes":[5.1998543E1,8.405478E0,0E0,0E0,7.9065647E0,5.601864E-1,5.8309574E0,3.9150047E-1,0E0,8.268055E0,2.7825952E0,0E0,0E0,4.328805E0,3.819477E0,1.7918711E0,1.2721552E0,0E0,0E0,0E0,0E0,0E0,0E0,0E0,0E0],"parents":[2147483647,0,0,1,1,4,4,5,5,6,6,7,7,9,9,10,10,13,13,14,14,15,15,16,16],"right_children":[2,4,-1,-1,6,8,10,12,-1,14,16,-1,-1,18,20,22,24,-1,-1,-1,-1,-1,-1,-1,-1],"split_conditions":[-8.451438E-1,-8.779991E-1,-7.94099E-2,-7.13774E-2,-3.461799E-2,9.15785E-1,1.3884773E0,2.6185184E0,7.204844E-3,-3.4601077E-2,-1.010172E-1,8.148234E-2,1.8763572E-2,-7.955115E-1,-1.6341642E-2,-1.5876488E-1,1.2588685E0,4.5278944E-2,-3.0778467E-3,4.357956E-2,-1.6769959E-2,1.2515591E-2,-4.8539624E-2,-2.3673952E-3,6.6045195E-2],"split_indices":[8,8,0,0,0,5,5,1,0,0,7,0,0,3,0,7,7,0,0,0,0,0,0,0,0],"split_type":[0,0,0,0,0,0,0,0,0,0,0,0,0,0,0,0,0,0,0,0,0,0,0,0,0],"sum_hessian":[2.925142E2,2.4319176E2,4.9322426E1,6.9025755E0,2.3628918E2,1.2832405E1,2.2345677E2,1.1790102E1,1.0423028E0,1.890126E2,3.444417E1,1.0366422E1,1.423681E0,1.2292979E2,6.608282E1,2.072969E1,1.3714481E1,1.2256067E1,1.1067371E2,5.9053688E1,7.029131E0,3.261402E0,1.7468288E1,1.2709967E1,1.0045149E0],"tree_param":{"num_deleted":"0","num_feature":"9","num_nodes":"25","size_leaf_vector":"1"}},{"base_weights":[-6.36013E-2,1.1614832E-1,-7.920677E-2,-7.346462E-2,1.476574E-1,3.1906697E-1,-6.389521E-2,2.16432E-1,7.3655164E-1,-1.9303933E-1,2.5243393E-1,8.8319993E-1,1.343453E-1,9.188939E-1,-5.4043746E-1,2.2325428E-1,-2.6277152E-1,7.577026E-1,6.597673E-2,7.623367E-2,1.804985E-2,6.344595E-2,4.1529792E-3,-1.9488186E-2,8.0891624E-2,-9.108919E-2,2.3538465E-2,4.533412E-2,-3.23566E-2,-5.6641355E-2,-6.0503082E-3,8.043709E-2,3.8233995E-2,4.826194E-2,-7.898278E-3],"categories":[],"categories_nodes":[],"categories_segments":[],"categories_sizes":[],"default_left":[0,0,0,0,0,0,0,0,0,0,0,0,0,0,0,0,0,0,0,0,0,0,0,0,0,0,0,0,0,0,0,0,0,0,0],"id":36,"left_children":[1,3,-1,-1,5,7,9,11,13,15,17,19,21,23,25,27,29,31,33,-1,-1,-1,-1,-1,-1,-1,-1,-1,-1,-1,-1,-1,-1,-1,-1],"loss_changes":[4.781404E1,7.983614E0,0E0,0E0,8.524583E0,5.3988237E0,4.370943E0,5.6576886E0,6.3600073E0,2.256052E0,2.880495E0,3.0715847E-1,5.1254644E0,2.649084E0,2.2203104E0,2.686932E0,5.38712E0,9.405708E-2,2.167204E0,0E0,0E0,0E0,0E0,0E0,0E0,0E0,0E0,0E0,0E0,0E0,0E0,0E0,0E0,0E0,0E0],"parents":[2147483647,0,0,1,1,4,4,5,5,6,6,7,7,8,8,9,9,10,10,11,11,12,12,13,13,14,14,15,15,16,16,17,17,18,18],"right_children":[2,4,-1,-1,6,8,10,12,14,16,18,20,22,24,26,28,30,32,34,-1,-1,-1,-1,-1,-1,-1,-1,-1,-1,-1,-1,-1,-1,-1,-1],"split_conditions":[-8.451438E-1,-9.7365126E-2,-7.920677E-2,-7.346462E-2,6.419456E-1,-1.3583285E-1,-1.0651378E-1,-3.461799E-2,1.4108685E-1,-1.5891548E-1,8.924559E-1,2.6185184E0,7.314456E-1,-3.461678E-2,3.2755804E-1,-3.4617156E-2,-3.461513E-2,-3.4607723E-2,-3.461267E-2,7.623367E-2,1.804985E-2,6.344595E-2,4.1529792E-3,-1.9488186E-2,8.0891624E-2,-9.108919E-2,2.3538465E-2,4.533412E-2,-3.23566E-2,-5.6641355E-2,-6.0503082E-3,8.043709E-2,3.8233995E-2,4.826194E-2,-7.898278E-3],"split_indices":[8,5,0,0,5,7,7,0,1,7,5,1,6,0,5,0,0,0,0,0,0,0,0,0,0,0,0,0,0,0,0,0,0,0,0],"split_type":[0,0,0,0,0,0,0,0,0,0,0,0,0,0,0,0,0,0,0,0,0,0,0,0,0,0,0,0,0,0,0,0,0,0,0],"sum_hessian":[2.8542047E2,2.3977559E2,4.5644894E1,6.2556515E0,2.3351993E2,1.2871828E2,1.0480165E2,1.04537155E2,2.418113E1,7.469608E1,3.0105572E1,1.0389196E1,9.414796E1,2.14051E1,2.7760286E0,1.04010935E1,6.429498E1,7.2892385E0,2.2816334E1,8.987172E0,1.4020241E0,9.512443E0,8.463551E1,1.4531221E0,1.9951979E1,1.4049777E0,1.371051E0,6.785804E0,3.6152902E0,1.8203161E1,4.6091827E1,2.4902058E0,4.7990327E0,4.728471E0,1.8087862E1],"tree_param":{"num_deleted":"0","num_feature":"9","num_nodes":"35","size_leaf_vector":"1"}},{"base_weights":[-5.9864506E-2,1.0934847E-1,-7.900022E-2,-7.250749E-2,1.3896875E-1,2.997946E-1,-5.8448564E-2,3.5460654E-1,-4.0664196E-1,-1.3248557E-1,4.357353E-1,2.4458843E-1,7.975814E-1,5.9105944E-2,-6.9052035E-1,-5.836313E-2,-3.8843066E-1,6.18137E-1,-2.7004448E-1,4.8844136E-2,3.9718505E-3,-1.3306867E-2,7.947735E-2,7.4267527E-3,-6.5904595E-2,-1.8676735E-2,3.014398E-2,2.3108723E-2,-5.1341847E-2,6.521259E-2,1.1205243E-2,-4.934998E-2,1.6390692E-2],"categories":[],"categories_nodes":[],"categories_segments":[],"categories_sizes":[],"default_left":[0,0,0,0,0,0,0,0,0,0,0,0,0,0,0,0,0,0,0,0,0,0,0,0,0,0,0,0,0,0,0,0,0],"id":37,"left_children":[1,3,-1,-1,5,7,9,11,13,15,17,19,21,-1,23,25,27,29,31,-1,-1,-1,-1,-1,-1,-1,-1,-1,-1,-1,-1,-1,-1],"loss_changes":[4.400632E1,7.268745E0,0E0,0E0,7.3694806E0,5.091544E0,3.8917925E0,5.60944E0,3.6531343E0,1.7208576E0,1.9546685E0,6.879049E0,4.5558767E0,0E0,9.392009E-1,5.607695E0,3.696334E0,9.5385265E-1,7.1078885E-1,0E0,0E0,0E0,0E0,0E0,0E0,0E0,0E0,0E0,0E0,0E0,0E0,0E0,0E0],"parents":[2147483647,0,0,1,1,4,4,5,5,6,6,7,7,8,8,9,9,10,10,11,11,12,12,14,14,15,15,16,16,17,17,18,18],"right_children":[2,4,-1,-1,6,8,10,12,14,16,18,20,22,-1,24,26,28,30,32,-1,-1,-1,-1,-1,-1,-1,-1,-1,-1,-1,-1,-1,-1],"split_conditions":[-8.451438E-1,-9.7365126E-2,-7.900022E-2,-7.250749E-2,6.419456E-1,1.7722578E0,-1.1134759E-2,-1.3583285E-1,-1.5895112E-1,1.560113E0,1.7011985E0,-3.4617268E-2,2.686798E-1,5.9105944E-2,-3.4618013E-2,-3.4536473E-2,-3.4612883E-2,-3.4296203E-2,-2.7323823E-2,4.8844136E-2,3.9718505E-3,-1.3306867E-2,7.947735E-2,7.4267527E-3,-6.5904595E-2,-1.8676735E-2,3.014398E-2,2.3108723E-2,-5.1341847E-2,6.521259E-2,1.1205243E-2,-4.934998E-2,1.6390692E-2],"split_indices":[8,5,0,0,5,2,7,7,7,5,5,0,5,0,0,0,0,0,0,0,0,0,0,0,0,0,0,0,0,0,0,0,0],"split_type":[0,0,0,0,0,0,0,0,0,0,0,0,0,0,0,0,0,0,0,0,0,0,0,0,0,0,0,0,0,0,0,0,0],"sum_hessian":[2.7866348E2,2.3641966E2,4.224382E1,5.8605394E0,2.3055913E2,1.267686E2,1.0379053E2,1.18103096E2,8.665501E0,9.0903564E1,1.2886963E1,9.58498E1,2.2253296E1,1.4027424E0,7.2627583E0,7.144183E1,1.9461731E1,1.0339104E1,2.5478592E0,3.2571335E1,6.327847E1,3.7839608E0,1.8469336E1,1.1001949E0,6.1625633E0,5.1274197E1,2.0167635E1,5.2598295E0,1.4201901E1,6.8223968E0,3.516707E0,1.2997779E0,1.2480812E0],"tree_param":{"num_deleted":"0","num_feature":"9","num_nodes":"33","size_leaf_vector":"1"}},{"base_weights":[-5.673186E-2,1.0233549E-1,-7.878909E-2,8.329679E-1,6.1724324E-2,9.0771127E-1,2.7381736E-3,1.4792418E-1,-2.7891424E-1,7.910712E-2,1.5188069E-2,2.4478616E-1,-1.9322023E-1,5.485984E-1,-4.2394772E-1,1.3574934E-2,4.870423E-1,-3.5469806E-1,8.0537714E-2,9.0025467E-1,-4.161196E-2,-7.820918E-2,-5.7577026E-1,2.8557848E-2,-1.5088237E-2,-1.3139215E-2,4.7427732E-2,-1.22365365E-2,-5.702137E-2,6.2860556E-2,-2.4462582E-3,-2.4884515E-3,9.5426455E-2,1.5171183E-2,-8.811533E-2,-5.9466098E-2,-8.428185E-3],"categories":[],"categories_nodes":[],"categories_segments":[],"categories_sizes":[],"default_left":[0,0,0,0,0,0,0,0,0,0,0,0,0,0,0,0,0,0,0,0,0,0,0,0,0,0,0,0,0,0,0,0,0,0,0,0,0],"id":38,"left_children":[1,3,-1,5,7,9,-1,11,13,-1,-1,15,17,19,21,23,25,27,29,31,-1,33,35,-1,-1,-1,-1,-1,-1,-1,-1,-1,-1,-1,-1,-1,-1],"loss_changes":[4.0468136E1,6.901498E0,0E0,7.0079136E-1,6.591207E0,4.6283245E-1,0E0,5.9513555E0,5.6807613E0,0E0,0E0,7.8128176E0,1.7999446E0,3.1763518E0,2.0120616E0,5.097901E0,4.7930737E0,1.7250319E0,1.2528734E0,1.6142583E0,0E0,3.803387E0,2.0557213E0,0E0,0E0,0E0,0E0,0E0,0E0,0E0,0E0,0E0,0E0,0E0,0E0,0E0,0E0],"parents":[2147483647,0,0,1,1,3,3,4,4,5,5,7,7,8,8,11,11,12,12,13,13,14,14,15,15,16,16,17,17,18,18,19,19,21,21,22,22],"right_children":[2,4,-1,6,8,10,-1,12,14,-1,-1,16,18,20,22,24,26,28,30,32,-1,34,36,-1,-1,-1,-1,-1,-1,-1,-1,-1,-1,-1,-1,-1,-1],"split_conditions":[-8.451438E-1,-3.461799E-2,-7.878909E-2,9.15785E-1,-2.6444507E-1,2.6185184E0,2.7381736E-3,1.2262844E0,-7.955115E-1,7.910712E-2,1.5188069E-2,-1.5460025E-1,-1.00183725E-1,-3.4617074E-2,-1.5885249E-1,2.4201794E-1,-3.4615166E-2,-1.4126389E-1,-9.243217E-2,1.1336476E0,-4.161196E-2,3.0084844E0,-3.4601077E-2,2.8557848E-2,-1.5088237E-2,-1.3139215E-2,4.7427732E-2,-1.22365365E-2,-5.702137E-2,6.2860556E-2,-2.4462582E-3,-2.4884515E-3,9.5426455E-2,1.5171183E-2,-8.811533E-2,-5.9466098E-2,-8.428185E-3],"split_indices":[8,0,0,5,1,1,0,5,3,0,0,7,7,0,7,5,0,7,7,1,0,1,0,0,0,0,0,0,0,0,0,0,0,0,0,0,0],"split_type":[0,0,0,0,0,0,0,0,0,0,0,0,0,0,0,0,0,0,0,0,0,0,0,0,0,0,0,0,0,0,0,0,0,0,0,0,0],"sum_hessian":[2.7242587E2,2.3332698E2,3.9098877E1,1.1258861E1,2.2206813E2,1.0170695E1,1.088166E0,1.7767305E2,4.439508E1,8.798829E0,1.3718659E0,1.3860191E2,3.907113E1,6.2055755E0,3.8189507E1,7.145793E1,6.714399E1,2.438929E1,1.468184E1,4.787855E0,1.4177204E0,1.2115214E1,2.6074291E1,2.6196932E1,4.5260998E1,9.30632E0,